#ifndef FSRCNN_WEIGHTS_H
#define FSRCNN_WEIGHTS_H

#include "conv2d.h"

const fixed_4_8_t extraction_weights[44][3][5][5] = {
    // Filter 0
    {
        {   // Channel 0
            { -0.11433014, -0.06428213,  0.04952151, -0.02263108,  0.02250793 },
            { -0.03798941, -0.00633621, -0.07827316,  0.03095409,  0.01443817 },
            {  0.03689848, -0.09081642,  0.05860689,  0.06232064,  0.00874583 },
            {  0.00830404, -0.09028250,  0.04836075,  0.01574024, -0.05474688 },
            {  0.03897108, -0.06225232,  0.01753724,  0.02418811, -0.03822224 },
        },
        {   // Channel 1
            {  0.00477085, -0.05933009, -0.04227761,  0.01911220, -0.06199792 },
            { -0.04209856, -0.06560600, -0.05108242,  0.08851463, -0.02541809 },
            {  0.03671201, -0.03489959, -0.01189760, -0.06215083,  0.01050324 },
            { -0.00799513,  0.00076000,  0.01511470, -0.10405967,  0.01873976 },
            { -0.04879151,  0.01140088,  0.04946414,  0.01681182, -0.00011618 },
        },
        {   // Channel 2
            { -0.03623180,  0.02557710, -0.01484760, -0.01260940,  0.00872839 },
            { -0.00589560,  0.02435622, -0.06638044,  0.00577510,  0.00808473 },
            {  0.01797765, -0.00885874,  0.16383554,  0.02077497,  0.00002132 },
            { -0.00601372, -0.02807183,  0.08771470, -0.03528251,  0.05220633 },
            {  0.01051262,  0.00916464, -0.05010103,  0.00487509,  0.01671523 },
        },
    },
    // Filter 1
    {
        {   // Channel 0
            { -0.02541194,  0.00913784, -0.05493931, -0.04540873, -0.00444349 },
            { -0.04365747,  0.05160484,  0.01033671, -0.00742860, -0.00743631 },
            { -0.00866332, -0.11367151,  0.01143395, -0.00448877,  0.05431724 },
            { -0.00169898,  0.05624544,  0.00514204,  0.00871954, -0.05661715 },
            { -0.06090648,  0.02369968, -0.05500052,  0.00798655,  0.02677871 },
        },
        {   // Channel 1
            { -0.01873467,  0.00015494, -0.00630037,  0.02440638, -0.04911892 },
            {  0.05012808, -0.01530921, -0.01661316,  0.01518527, -0.00278964 },
            { -0.00032775,  0.02107802,  0.03012595,  0.03768526, -0.00239703 },
            { -0.01353978, -0.03830523, -0.04330930,  0.10619482, -0.02257329 },
            {  0.07532064,  0.09079469, -0.00516357,  0.02127700,  0.01473787 },
        },
        {   // Channel 2
            { -0.00388909, -0.00990442,  0.02881729,  0.03003909,  0.01206425 },
            {  0.00459791, -0.07386126, -0.02426244,  0.04611578,  0.02690556 },
            {  0.06932599,  0.01482212,  0.12167481,  0.00932563, -0.02996307 },
            {  0.06002534,  0.02801096,  0.05356700,  0.07513394, -0.00483009 },
            {  0.07905549, -0.05443183, -0.10085019,  0.00566804,  0.00865334 },
        },
    },
    // Filter 2
    {
        {   // Channel 0
            {  0.05349001, -0.00088199, -0.02133236,  0.08401914, -0.05966866 },
            { -0.02485121, -0.02025407,  0.02979435,  0.02735082,  0.03118210 },
            {  0.05836574, -0.00381901,  0.09199128,  0.05697924,  0.02152670 },
            { -0.02810363,  0.01136371,  0.02845179, -0.09904093,  0.05342963 },
            {  0.00667151,  0.05294604,  0.09683172,  0.05824826, -0.00110732 },
        },
        {   // Channel 1
            {  0.05922899, -0.03538691,  0.01538198, -0.01983391,  0.02972726 },
            {  0.01204794,  0.00788677,  0.02361921,  0.00535267,  0.00094409 },
            { -0.05408627, -0.00743088,  0.02128568,  0.00849330,  0.00314713 },
            {  0.02766019,  0.02214131,  0.04026965,  0.01839434, -0.00343486 },
            {  0.02476418,  0.07043584, -0.03490451, -0.03351753,  0.00209428 },
        },
        {   // Channel 2
            { -0.01665371,  0.03379812,  0.00938707, -0.00417028, -0.01380066 },
            { -0.04034079,  0.00492100, -0.06152207,  0.04608931,  0.07415878 },
            {  0.04999337,  0.01579915, -0.08136206,  0.01032773, -0.03917595 },
            { -0.00452428, -0.06388959,  0.09812207, -0.01102376,  0.05165089 },
            {  0.01069988,  0.00092270,  0.04527457,  0.09342686,  0.02728619 },
        },
    },
    // Filter 3
    {
        {   // Channel 0
            {  0.01211566, -0.00718673,  0.00640205,  0.11888165,  0.04082227 },
            { -0.00368120,  0.06387784,  0.02413125,  0.03410865,  0.01779616 },
            {  0.00927860,  0.03732662,  0.00876231,  0.03369834,  0.02616292 },
            { -0.04536702, -0.05622486,  0.05654437,  0.02777184,  0.13265350 },
            {  0.05051242, -0.03443617, -0.04942841,  0.01362952, -0.00451611 },
        },
        {   // Channel 1
            {  0.05317195,  0.03501719,  0.00680173,  0.00206432,  0.00209860 },
            {  0.02244887, -0.02855995, -0.04275771, -0.05023027, -0.02186618 },
            { -0.03454725, -0.04100876, -0.01323132, -0.04599526,  0.03742767 },
            {  0.04869702, -0.03517389, -0.06776728, -0.00604069, -0.08538112 },
            {  0.06134319, -0.02556798,  0.06777388,  0.06327026, -0.00928656 },
        },
        {   // Channel 2
            { -0.04307160,  0.00186541,  0.06380281,  0.01292580,  0.03522826 },
            {  0.02330470,  0.01833427,  0.04408712, -0.06777265,  0.01126926 },
            { -0.03356123,  0.12783261,  0.14320065,  0.02349415,  0.03590041 },
            {  0.04767066,  0.10187601,  0.08968647,  0.02323261,  0.05540090 },
            { -0.02117719, -0.00150795,  0.05236957,  0.05682407, -0.02348165 },
        },
    },
    // Filter 4
    {
        {   // Channel 0
            { -0.02646157,  0.02578108,  0.00273754,  0.00172384,  0.01716486 },
            {  0.02018596,  0.00454679, -0.07924005,  0.00937080, -0.06141022 },
            {  0.00688322,  0.04467983, -0.00541876, -0.01627883, -0.02628652 },
            { -0.06516619,  0.04042647, -0.00420758,  0.04210540, -0.06256448 },
            { -0.05258029, -0.04633704, -0.00785177, -0.03656620, -0.05666107 },
        },
        {   // Channel 1
            { -0.01307017, -0.10275740,  0.06269243, -0.01742254, -0.00739104 },
            {  0.03848810,  0.03186137, -0.06113816, -0.01846036, -0.04729164 },
            { -0.01866555, -0.01415630,  0.05506886, -0.03351108, -0.04192542 },
            { -0.02690078,  0.05334699, -0.02892571,  0.05293366, -0.00061172 },
            {  0.00041982,  0.00285157, -0.00845523,  0.01902529, -0.01662667 },
        },
        {   // Channel 2
            { -0.00182738,  0.00802710, -0.04914799,  0.01012655, -0.01574426 },
            { -0.06397407,  0.02108271,  0.02779068,  0.03143298, -0.04209616 },
            {  0.00983407, -0.03771798, -0.09484562,  0.00668812,  0.02422366 },
            {  0.00135343, -0.00900165,  0.03928789, -0.02461814,  0.03154449 },
            {  0.02888677,  0.01935435, -0.02990016, -0.01437721, -0.01366973 },
        },
    },
    // Filter 5
    {
        {   // Channel 0
            {  0.08782142, -0.00863776, -0.02493059,  0.00456958,  0.02865285 },
            {  0.08222408, -0.04405694,  0.00860133,  0.02551203,  0.04421876 },
            { -0.04501871,  0.05031777,  0.00925287, -0.01834307,  0.00058616 },
            {  0.12036404, -0.07680508,  0.04299488,  0.05706118,  0.10467151 },
            { -0.04491065,  0.03385537,  0.01296496,  0.03132191, -0.02297610 },
        },
        {   // Channel 1
            {  0.01900345,  0.00207178,  0.05784029, -0.03466031, -0.01033454 },
            { -0.01920325, -0.01541300,  0.03306955, -0.04404585, -0.00938226 },
            { -0.02005345, -0.00242227,  0.01439895, -0.01413208,  0.01657596 },
            {  0.01310876,  0.03752099,  0.01439531,  0.00959690,  0.00148231 },
            { -0.05204714, -0.10263205, -0.03318612, -0.03598789,  0.03347350 },
        },
        {   // Channel 2
            {  0.00882870, -0.04968137,  0.04242567, -0.01293218,  0.04607426 },
            {  0.01092486, -0.05595881, -0.01325999,  0.06533126, -0.01096857 },
            { -0.03201280,  0.06098986, -0.04700527,  0.01545178, -0.02776328 },
            {  0.05110938, -0.07868528,  0.08285157, -0.04374430, -0.05094602 },
            {  0.03387480,  0.03260497,  0.02194987,  0.00256755,  0.04922087 },
        },
    },
    // Filter 6
    {
        {   // Channel 0
            { -0.01163661,  0.02176949,  0.02009531,  0.02831250, -0.02342674 },
            {  0.00491263, -0.03287042,  0.03423412,  0.01881943, -0.00374628 },
            { -0.05239752,  0.01142388,  0.01538528,  0.00557053, -0.04276008 },
            { -0.00395612, -0.08147741, -0.01372270,  0.05968023, -0.03231282 },
            {  0.01375431, -0.03692701, -0.01118738, -0.02793065, -0.02896671 },
        },
        {   // Channel 1
            { -0.05981236,  0.00688469,  0.00120686, -0.05388916, -0.11365046 },
            { -0.00886086, -0.02483183, -0.01468990,  0.01071555,  0.02163688 },
            {  0.01962334,  0.00274145, -0.02000776,  0.01011334, -0.10214595 },
            {  0.00865258, -0.01290299,  0.01305718,  0.01618518,  0.00352756 },
            { -0.00082301, -0.02900817, -0.00927611, -0.01201852,  0.03759374 },
        },
        {   // Channel 2
            {  0.08650607, -0.07080875,  0.05342450,  0.06783809,  0.02280865 },
            { -0.03014696,  0.03040759, -0.03353069, -0.06718218, -0.00864111 },
            {  0.02868452, -0.04665266,  0.07650629, -0.04933207, -0.00103773 },
            {  0.00351857,  0.01527667,  0.06809949,  0.04853689,  0.05520348 },
            {  0.02294353,  0.01226456, -0.02652479, -0.00461741, -0.02998195 },
        },
    },
    // Filter 7
    {
        {   // Channel 0
            {  0.00169243,  0.02239130, -0.01554204, -0.01977433, -0.02757001 },
            { -0.06784851, -0.05960015, -0.05103223, -0.07628010, -0.02577701 },
            { -0.05580012, -0.03157267,  0.01493259, -0.02462843, -0.05752110 },
            {  0.00457665, -0.02813282,  0.05285185,  0.00065439,  0.04244919 },
            { -0.01354512, -0.01560478,  0.02715957,  0.02251072,  0.03654423 },
        },
        {   // Channel 1
            { -0.08437724, -0.03840093,  0.08969602, -0.03008664, -0.02303044 },
            {  0.02198735,  0.00118839, -0.07360315, -0.07292626,  0.04027331 },
            { -0.04228884,  0.07371664,  0.07076419,  0.00188239, -0.03683589 },
            {  0.00774124,  0.02713739, -0.02115335, -0.00299093,  0.00099560 },
            {  0.03499264,  0.03052320, -0.01788164,  0.01958124, -0.02958935 },
        },
        {   // Channel 2
            { -0.07461428, -0.06360594, -0.09523441, -0.01451728,  0.00980437 },
            {  0.03560565,  0.02797337,  0.07658503, -0.02837783,  0.00606195 },
            {  0.03041241,  0.01217236,  0.03511788,  0.00814953,  0.00782362 },
            { -0.04285183, -0.09397900,  0.05102211, -0.07985049,  0.09069365 },
            {  0.01489091,  0.02893518, -0.02819429, -0.03375150,  0.03304526 },
        },
    },
    // Filter 8
    {
        {   // Channel 0
            {  0.06505744, -0.04125243,  0.07313648,  0.07732683, -0.06066170 },
            { -0.06028249, -0.04494644,  0.05856121, -0.05931079,  0.00514371 },
            {  0.11222321,  0.03900640,  0.09047592, -0.00894702, -0.01981630 },
            { -0.01579333,  0.00536424, -0.01309170,  0.08187402,  0.04257403 },
            {  0.02846641,  0.04677248, -0.00060938, -0.01940810, -0.10084286 },
        },
        {   // Channel 1
            {  0.01215411, -0.00953335,  0.00697078,  0.04873243,  0.00573650 },
            {  0.02868808,  0.01155927, -0.06481101,  0.04422240, -0.00655723 },
            { -0.03853725, -0.01436940,  0.05888518, -0.10931862, -0.00586551 },
            {  0.04062972, -0.00112557,  0.01096645,  0.00255413, -0.05311700 },
            {  0.01125860, -0.03215575, -0.03820358,  0.08167172,  0.06460437 },
        },
        {   // Channel 2
            { -0.06610771, -0.02130063, -0.00351562, -0.04655666,  0.04737515 },
            { -0.05229024,  0.00387129,  0.00616600, -0.01808223,  0.12214538 },
            {  0.00532000,  0.05477559,  0.07605212, -0.00696599, -0.02707707 },
            {  0.02114136, -0.03616159,  0.01786853, -0.00467119, -0.01185349 },
            { -0.02345818, -0.04632023,  0.03692571, -0.03849215,  0.03372797 },
        },
    },
    // Filter 9
    {
        {   // Channel 0
            {  0.00652073,  0.07326057,  0.04382901, -0.03888751, -0.02259730 },
            { -0.05094595,  0.00335937,  0.05825248, -0.00519284, -0.08940866 },
            { -0.05548273, -0.04255270, -0.03905517,  0.04922575, -0.05253402 },
            { -0.00955438,  0.01149634,  0.05971912, -0.03741416,  0.03059434 },
            {  0.05085349,  0.02332171,  0.00995271, -0.03006153,  0.03651546 },
        },
        {   // Channel 1
            { -0.03217426, -0.00776046, -0.03332780,  0.01856594,  0.04451285 },
            {  0.03619498,  0.02415389, -0.00253043, -0.01962177,  0.02395398 },
            { -0.02081081, -0.08591241, -0.04491981, -0.07434820,  0.00011801 },
            { -0.01845026, -0.01690698, -0.03113800,  0.02376783, -0.05100417 },
            {  0.00917624, -0.01848187,  0.01686889,  0.00369983, -0.02591954 },
        },
        {   // Channel 2
            {  0.00988698, -0.02467116, -0.04777375,  0.00879768,  0.06165776 },
            { -0.02455145,  0.02792536, -0.03778811, -0.02771740,  0.00757080 },
            { -0.05427872, -0.00287613, -0.07662863,  0.04773352,  0.01141349 },
            { -0.02447014, -0.03373226, -0.00277599,  0.06755912, -0.03543601 },
            {  0.00992585, -0.03314554, -0.00805085,  0.01080392, -0.04315905 },
        },
    },
    // Filter 10
    {
        {   // Channel 0
            { -0.04259373,  0.03475479,  0.13789950, -0.01869412,  0.08835389 },
            { -0.06163006,  0.00892614,  0.07000136,  0.02512809,  0.10754817 },
            {  0.00923789,  0.04873314,  0.04105372, -0.09007085, -0.05272686 },
            { -0.10927764,  0.06229490,  0.12113072,  0.00869730,  0.01054877 },
            { -0.04982667, -0.02979724,  0.08655717, -0.02159257,  0.11064138 },
        },
        {   // Channel 1
            { -0.01719535,  0.03813800,  0.12074517, -0.00318921,  0.01974188 },
            {  0.08785093, -0.03130106, -0.00804422, -0.05603110,  0.04092428 },
            {  0.07154866, -0.00454119,  0.08531395, -0.07240289, -0.02512246 },
            {  0.00297149,  0.02538555,  0.04224892, -0.03663730,  0.05591811 },
            {  0.06954795,  0.00640826, -0.00707213, -0.02579266, -0.00641481 },
        },
        {   // Channel 2
            {  0.01222452, -0.02322475,  0.01897001, -0.04155765, -0.04513269 },
            { -0.00703797, -0.05945725,  0.04515737,  0.02020900,  0.01903383 },
            { -0.01932924, -0.01442654,  0.08112311,  0.01576382,  0.10746607 },
            { -0.15263057, -0.01402161, -0.11049269,  0.04247702,  0.06125599 },
            {  0.09888781, -0.01761129,  0.01646077,  0.03142089, -0.03365314 },
        },
    },
    // Filter 11
    {
        {   // Channel 0
            { -0.02270884, -0.03405521, -0.01074888,  0.01323087,  0.05742375 },
            { -0.01711011,  0.03899711, -0.02357128,  0.03152329,  0.01981659 },
            {  0.02069248, -0.02383608, -0.04355635, -0.02034285, -0.00134410 },
            { -0.00031443, -0.03356232,  0.03113328, -0.01082825, -0.02842736 },
            {  0.02397160,  0.03229720,  0.01595637, -0.02187330,  0.01302429 },
        },
        {   // Channel 1
            {  0.07311396, -0.02810270, -0.02336453,  0.01177877,  0.05865186 },
            { -0.01171568, -0.04406757,  0.09976180,  0.05399935,  0.02344532 },
            { -0.02785665,  0.03632231, -0.01808306, -0.03750350,  0.00305276 },
            {  0.00117555,  0.09421329,  0.12367889,  0.10576563, -0.02896213 },
            {  0.04141450, -0.01517687, -0.00475687,  0.07357358, -0.07589403 },
        },
        {   // Channel 2
            {  0.01115354, -0.00280568, -0.03960088,  0.09471770,  0.00616121 },
            { -0.03072207, -0.00666082, -0.02421260,  0.02940057, -0.08012374 },
            {  0.03295162,  0.03246951, -0.01098438,  0.01439094, -0.08880390 },
            { -0.08692455,  0.03062504,  0.00041916, -0.00609712, -0.06308010 },
            {  0.07013410,  0.02662936, -0.02360810, -0.00729058,  0.01480075 },
        },
    },
    // Filter 12
    {
        {   // Channel 0
            { -0.02469383,  0.00337555,  0.00227876, -0.08204811,  0.01568927 },
            {  0.04434354, -0.02316083, -0.02839980, -0.09002697,  0.04896438 },
            { -0.00196038, -0.02851883,  0.01714136, -0.17006668, -0.07406864 },
            { -0.01572950, -0.02921032,  0.02937043, -0.11570013, -0.01031834 },
            { -0.03840204,  0.08635489,  0.01740737, -0.05114928,  0.09473640 },
        },
        {   // Channel 1
            { -0.06224278, -0.01594196, -0.08666167,  0.06826288,  0.03412620 },
            {  0.08479279, -0.03714264, -0.02588403, -0.02454336,  0.04586374 },
            { -0.02017320,  0.05881370, -0.01994694,  0.06849363, -0.02376835 },
            {  0.09155448,  0.00005518,  0.01619194, -0.04681759, -0.00693830 },
            { -0.01917185, -0.03162640,  0.06893546,  0.01803537,  0.00689505 },
        },
        {   // Channel 2
            { -0.05041614, -0.02471289, -0.05289356, -0.03534723,  0.01027003 },
            { -0.05687597, -0.05455871, -0.07029884,  0.00339481,  0.02756649 },
            { -0.03012728,  0.06930891,  0.13563105,  0.02684612,  0.05557140 },
            { -0.04582025, -0.00022462, -0.02895445,  0.01254772, -0.01514292 },
            { -0.01917492,  0.01218877,  0.01271075, -0.01246872, -0.08677942 },
        },
    },
    // Filter 13
    {
        {   // Channel 0
            { -0.04156309,  0.01821023,  0.01182454,  0.03708061, -0.01604190 },
            { -0.02584429,  0.03868896,  0.05977199, -0.09021501, -0.03448847 },
            { -0.04268693, -0.02877444,  0.03121297,  0.00814077,  0.01658611 },
            {  0.02606167,  0.01843676, -0.00904496,  0.08218662,  0.00956328 },
            { -0.01111443, -0.01852498, -0.06255253, -0.00137078,  0.00193822 },
        },
        {   // Channel 1
            {  0.03676024, -0.02974849, -0.03522126,  0.02278155,  0.03136662 },
            {  0.01701546,  0.00439618,  0.05119351,  0.04466286, -0.00917937 },
            { -0.06816887,  0.03510820, -0.05667426, -0.06668878,  0.08324981 },
            {  0.05153960, -0.04530301, -0.12706113, -0.00899757,  0.09014390 },
            { -0.01072594,  0.02492837,  0.01407478, -0.00566280, -0.02488295 },
        },
        {   // Channel 2
            { -0.04054717, -0.04486772,  0.01451329, -0.01977812, -0.02610363 },
            {  0.00457735,  0.01759008,  0.06083027, -0.00649810, -0.08457738 },
            {  0.02649685,  0.06057733, -0.01865863, -0.07486541, -0.07716788 },
            {  0.01286925,  0.08350441,  0.00110672,  0.07662030,  0.07607645 },
            { -0.01796115,  0.11360595,  0.02198094, -0.04645034,  0.06119142 },
        },
    },
    // Filter 14
    {
        {   // Channel 0
            { -0.02186579, -0.05766277, -0.07718892, -0.03402112,  0.09861517 },
            {  0.01736919, -0.08390781,  0.00147815,  0.02781816, -0.06939027 },
            { -0.01052903, -0.06697734, -0.03302015,  0.01434376, -0.00029464 },
            {  0.00118704,  0.01082159,  0.07399039,  0.02565487,  0.02968915 },
            {  0.11164753, -0.08359269,  0.04264780,  0.04503878, -0.00259792 },
        },
        {   // Channel 1
            { -0.02424808,  0.04674480,  0.06862321,  0.05920827, -0.05346277 },
            {  0.01255907,  0.05164498,  0.09533872,  0.06544162, -0.04276854 },
            {  0.05728808, -0.02591565,  0.02841140,  0.02097134,  0.08211754 },
            { -0.01118537, -0.02885797,  0.04818575, -0.06935753, -0.05149373 },
            {  0.03368919,  0.05939839, -0.00137513,  0.01990154,  0.00282806 },
        },
        {   // Channel 2
            {  0.00649398, -0.07315861, -0.02688735,  0.02102326, -0.04067573 },
            {  0.02542716, -0.02194745,  0.03691039, -0.05588853,  0.01745033 },
            {  0.03581400, -0.00443524,  0.04919240, -0.00350402,  0.03281965 },
            {  0.08377103, -0.04874102,  0.09990359,  0.04392694,  0.00847983 },
            {  0.00208417, -0.02056865,  0.02892784,  0.04955476, -0.03157818 },
        },
    },
    // Filter 15
    {
        {   // Channel 0
            { -0.01854120, -0.02731298, -0.14695793, -0.03286949,  0.03724378 },
            { -0.04992175, -0.07610650,  0.01034752, -0.00560831,  0.04114986 },
            { -0.00569890, -0.03224791,  0.06007034,  0.08603031,  0.00767118 },
            {  0.00587591,  0.08280312,  0.07108845,  0.06982093,  0.03096142 },
            { -0.05673386,  0.00436254, -0.05795208,  0.00086714, -0.10738516 },
        },
        {   // Channel 1
            {  0.08273116,  0.00716873, -0.06123299, -0.05243773,  0.06978828 },
            {  0.07430729, -0.11485998,  0.11887013,  0.04251701, -0.04215382 },
            { -0.00845200,  0.03995046, -0.00131594, -0.02744077,  0.03782112 },
            {  0.00912774, -0.01217225, -0.06200702, -0.05458363,  0.02041228 },
            { -0.01413133,  0.07488021, -0.05280280, -0.01516108, -0.01273454 },
        },
        {   // Channel 2
            {  0.03425187,  0.00662771, -0.01235194,  0.02299769, -0.02147381 },
            {  0.00677463,  0.04826594,  0.06902929,  0.07672423, -0.08026451 },
            {  0.05714665,  0.04566996, -0.01040046,  0.00177466,  0.01612505 },
            {  0.03351716,  0.05243815,  0.04571857, -0.02362964,  0.04793558 },
            {  0.01201183,  0.02257917, -0.02916348,  0.01549774,  0.00610787 },
        },
    },
    // Filter 16
    {
        {   // Channel 0
            { -0.00063391, -0.03348153,  0.01296014, -0.00418495,  0.03087122 },
            {  0.04994024,  0.02472362, -0.03956467,  0.01305123, -0.02123764 },
            {  0.01412881, -0.02775911,  0.01732623, -0.00631980, -0.04812500 },
            {  0.00846323,  0.06419219,  0.05857212, -0.06016868, -0.02113038 },
            { -0.04599060,  0.00888115,  0.05468962,  0.02189640, -0.02946178 },
        },
        {   // Channel 1
            { -0.01940336,  0.01031858, -0.04480833,  0.02866638, -0.01894888 },
            { -0.04383263, -0.00652256,  0.01102464, -0.04843333, -0.04338756 },
            {  0.01673145, -0.01630577, -0.00890937, -0.07754119,  0.05155667 },
            { -0.08493803, -0.01107307, -0.04751018, -0.05959413,  0.05396533 },
            {  0.02382191, -0.01104988, -0.04202772,  0.01247597,  0.03169844 },
        },
        {   // Channel 2
            {  0.02328358, -0.13701712, -0.03896610, -0.00169231,  0.04092814 },
            {  0.00206289,  0.06473053, -0.01273129, -0.02956193, -0.02133866 },
            {  0.01590044,  0.06051031, -0.00230037,  0.06777143, -0.01620659 },
            {  0.00050901,  0.00257690, -0.00850952, -0.05146448, -0.04445800 },
            {  0.01098759, -0.02964369, -0.00589091,  0.12335911, -0.05584964 },
        },
    },
    // Filter 17
    {
        {   // Channel 0
            {  0.03294418,  0.03032911,  0.08491652,  0.00921626,  0.03321694 },
            {  0.00575396, -0.03039921, -0.06995694, -0.00439720,  0.04640703 },
            { -0.03509151, -0.02112238, -0.01809341, -0.03286802,  0.01140214 },
            {  0.02066087,  0.00412331, -0.07701617,  0.02458422, -0.02953284 },
            {  0.02273451,  0.04490761, -0.03418674, -0.05485067,  0.06969330 },
        },
        {   // Channel 1
            { -0.01040742, -0.02454506,  0.00089143, -0.02640883,  0.01818220 },
            {  0.04829555,  0.06192620,  0.01776032,  0.02483353,  0.00681792 },
            {  0.10339614,  0.07240280, -0.00807345, -0.00993902,  0.01671911 },
            {  0.06152441,  0.02316167,  0.00673846,  0.02290761, -0.01407199 },
            {  0.01239232,  0.04855144, -0.05160631, -0.07298484, -0.03589524 },
        },
        {   // Channel 2
            {  0.07314803, -0.06507708, -0.06590714, -0.03595872,  0.07997112 },
            { -0.00735720,  0.01731875, -0.07790299,  0.06597929,  0.07067675 },
            { -0.01094455,  0.03789107,  0.04138065,  0.01686124,  0.01198744 },
            {  0.01113960,  0.06495188,  0.05069869, -0.08868970,  0.01424065 },
            {  0.10046707,  0.01086290,  0.01508556, -0.00912929, -0.01555024 },
        },
    },
    // Filter 18
    {
        {   // Channel 0
            {  0.08028837,  0.04376148, -0.03118511,  0.04385460, -0.05608469 },
            { -0.04841242,  0.05188804,  0.06078793, -0.00373918,  0.00852771 },
            { -0.06713766,  0.01349022,  0.03109243, -0.01298594, -0.01209607 },
            { -0.02648907, -0.01957653,  0.08720711, -0.01321040, -0.01111747 },
            { -0.05207416, -0.07493342,  0.06580008, -0.03124029, -0.11297055 },
        },
        {   // Channel 1
            {  0.00987561, -0.04522625, -0.03100614,  0.01907970, -0.01661171 },
            { -0.02619976, -0.02613385,  0.05312803,  0.01518965,  0.03102988 },
            {  0.03037535,  0.00467873,  0.09447499, -0.08139295, -0.11840577 },
            { -0.04117254,  0.01145569,  0.05728599, -0.01678772,  0.05277275 },
            {  0.02078929, -0.04739065,  0.10124961, -0.02880655,  0.03681961 },
        },
        {   // Channel 2
            { -0.09649961, -0.11966541,  0.08876029, -0.01409696, -0.06951548 },
            {  0.01445965, -0.02960014,  0.03178253, -0.05111066, -0.01906297 },
            {  0.00921524, -0.03416269, -0.02784744, -0.00367833,  0.11000254 },
            {  0.04899947,  0.02577940,  0.02547022, -0.03041440,  0.04227665 },
            { -0.00964338, -0.03513958, -0.02876557, -0.04337350, -0.02876856 },
        },
    },
    // Filter 19
    {
        {   // Channel 0
            {  0.05443949,  0.03362161, -0.02152355, -0.03575273,  0.04770901 },
            { -0.02337815, -0.06831472,  0.02194623, -0.05295231, -0.02386790 },
            {  0.06384876, -0.09325464,  0.03523981,  0.06547466,  0.03100456 },
            { -0.08263770, -0.02975271,  0.03812054, -0.02240397,  0.02628116 },
            { -0.01175826,  0.03647369, -0.01382535, -0.00936405,  0.03411920 },
        },
        {   // Channel 1
            {  0.04537927,  0.07865790,  0.01394880, -0.05724048,  0.02774151 },
            {  0.09221670,  0.06207677,  0.03519505, -0.07720917, -0.01949361 },
            {  0.00903816,  0.03979948,  0.10309588, -0.01127445, -0.01100274 },
            {  0.01206232,  0.05334460,  0.03471732,  0.00326625, -0.00022878 },
            { -0.03941792,  0.00851510, -0.01984913, -0.04740727, -0.07741369 },
        },
        {   // Channel 2
            { -0.01333140,  0.05531598,  0.02436325,  0.02210277, -0.03434962 },
            {  0.00236980,  0.05851686,  0.04848734, -0.04605601,  0.04528832 },
            {  0.05262189,  0.02438371,  0.16173489,  0.10542934, -0.00335024 },
            { -0.03196985,  0.03383340,  0.03954419,  0.04182982, -0.01542266 },
            {  0.03771072, -0.00984730,  0.02607548, -0.03163089, -0.07827776 },
        },
    },
    // Filter 20
    {
        {   // Channel 0
            {  0.03669273,  0.05182672,  0.00824175,  0.08258139, -0.00400273 },
            { -0.02948529, -0.05007719, -0.01038072,  0.05518228,  0.00011108 },
            { -0.03746669, -0.05957412,  0.02578993,  0.00410206,  0.06540708 },
            {  0.00019037, -0.01471269,  0.04840189,  0.01046834, -0.01708733 },
            {  0.01169798, -0.05547905,  0.02119803, -0.02041033,  0.02887871 },
        },
        {   // Channel 1
            {  0.06552753,  0.08489010, -0.03591020,  0.01877489, -0.00753012 },
            { -0.06438546, -0.03007928,  0.01066544, -0.10193186,  0.06833526 },
            { -0.03008238, -0.00976822,  0.01777713,  0.00248580, -0.01105591 },
            { -0.04140683,  0.00104772,  0.07442952,  0.04183567, -0.01725893 },
            {  0.04803829,  0.01876963, -0.08168615, -0.00423036,  0.04032528 },
        },
        {   // Channel 2
            {  0.06777312,  0.02725853,  0.02678072,  0.06492674, -0.01910568 },
            { -0.03117658,  0.00151157, -0.03550177,  0.01485921, -0.05593740 },
            { -0.01559115,  0.02368235,  0.16992816,  0.02369114,  0.02524636 },
            {  0.02306959, -0.01991353,  0.08787838,  0.05405596,  0.06189426 },
            {  0.01400417, -0.00792905, -0.03731429,  0.01234645, -0.00909522 },
        },
    },
    // Filter 21
    {
        {   // Channel 0
            {  0.00344212,  0.05806782, -0.03776329,  0.02534033,  0.03738848 },
            { -0.03417583, -0.00901957, -0.02302264, -0.02679484,  0.11398249 },
            { -0.07817252, -0.03373322,  0.02182197, -0.01287448,  0.00103285 },
            {  0.00179469,  0.00615005,  0.02173441, -0.01562685,  0.03124992 },
            {  0.08272992,  0.02180136, -0.01289694,  0.03018630, -0.04682059 },
        },
        {   // Channel 1
            {  0.02093288,  0.10487328, -0.01330262,  0.00187493,  0.02123771 },
            {  0.05446146, -0.02015064, -0.02602787, -0.00087086, -0.00070691 },
            {  0.02389649,  0.06392270,  0.03131629, -0.03470780,  0.01390783 },
            { -0.00698564, -0.06835783, -0.03111622,  0.09077036, -0.06937264 },
            {  0.03724420, -0.00053317, -0.02069352,  0.02428134, -0.03395046 },
        },
        {   // Channel 2
            {  0.03403015, -0.05318109,  0.04778746, -0.01806186, -0.01482985 },
            {  0.01695275,  0.00140241, -0.00465523, -0.04782344, -0.01333574 },
            { -0.05454566,  0.00212911,  0.00050201,  0.02318074,  0.08286902 },
            { -0.02676169,  0.00169678, -0.03870600,  0.03153260,  0.04397633 },
            {  0.01179519,  0.02649299,  0.04251425,  0.02457396,  0.03874417 },
        },
    },
    // Filter 22
    {
        {   // Channel 0
            { -0.00765137,  0.00570360, -0.04575045,  0.01367870,  0.08723542 },
            {  0.01657479,  0.00892385, -0.00260776, -0.03826413, -0.05833960 },
            {  0.00141863, -0.01413694, -0.03395068,  0.00327575,  0.01412493 },
            {  0.02852156, -0.00925417, -0.04543037, -0.05196273,  0.04916644 },
            {  0.04627133,  0.04985948, -0.01971690,  0.02848056, -0.00711248 },
        },
        {   // Channel 1
            {  0.09213816,  0.07362352,  0.05130615,  0.03167082, -0.01480080 },
            { -0.09493012,  0.00340361, -0.01581134, -0.04058337, -0.02174685 },
            {  0.05231076, -0.03640797, -0.01860680, -0.06283454,  0.00957433 },
            {  0.00515021, -0.04446756, -0.03034642, -0.04807990,  0.03852392 },
            {  0.05020697, -0.06560574, -0.00706704,  0.03916692, -0.00046445 },
        },
        {   // Channel 2
            { -0.07363053, -0.01042856, -0.02870237,  0.07493536, -0.09137374 },
            { -0.01294218, -0.03402568, -0.01347056, -0.08110632,  0.03232510 },
            { -0.08740568, -0.04568079,  0.05148797,  0.08604573, -0.01541606 },
            { -0.07590099, -0.04559046, -0.02193345,  0.03499816, -0.08758634 },
            {  0.02103410, -0.10724112,  0.00298753, -0.02110447, -0.04493821 },
        },
    },
    // Filter 23
    {
        {   // Channel 0
            { -0.06000613, -0.00782259,  0.02825679,  0.07331163, -0.05938131 },
            {  0.00394302, -0.03966924,  0.01029007,  0.01876893,  0.00169370 },
            { -0.01718876,  0.06711216,  0.09338626,  0.05957480,  0.05064895 },
            {  0.03551553, -0.01440720,  0.11312500, -0.05812186, -0.04690552 },
            {  0.00592745,  0.03900440,  0.02432702,  0.00753263, -0.01900842 },
        },
        {   // Channel 1
            {  0.00950005, -0.05700608, -0.02368326, -0.10200041, -0.08076315 },
            { -0.01460395,  0.02890170,  0.03695854,  0.01269090,  0.00541175 },
            {  0.02708324,  0.03211395,  0.07561438, -0.05202103,  0.09168305 },
            { -0.00805576,  0.01205170, -0.01564597,  0.01236251, -0.00232431 },
            {  0.03082457,  0.03187565, -0.07376583,  0.02151277, -0.04505501 },
        },
        {   // Channel 2
            {  0.00297243, -0.01098587, -0.05046928,  0.03029390, -0.00121665 },
            { -0.01794327,  0.00665192,  0.02148759, -0.02928334, -0.00395899 },
            {  0.03080196,  0.00362967, -0.00884342,  0.05772581,  0.01541339 },
            { -0.05149721, -0.01555520, -0.00802908,  0.08912823,  0.04447933 },
            {  0.00623755,  0.04091183,  0.00176302, -0.07820375,  0.07849544 },
        },
    },
    // Filter 24
    {
        {   // Channel 0
            { -0.02391223,  0.01006076,  0.00740371,  0.01033297,  0.00257463 },
            {  0.04420275,  0.04529776,  0.00848632, -0.01170949,  0.00731122 },
            { -0.04787514,  0.03576288,  0.00683977, -0.00397914, -0.01240269 },
            { -0.09995968, -0.04850480,  0.02425056, -0.00118552,  0.01181164 },
            {  0.03264901, -0.00702508, -0.00607184, -0.00394441,  0.01790243 },
        },
        {   // Channel 1
            {  0.04555951,  0.02415879,  0.00959618, -0.00173133, -0.05804188 },
            {  0.02251927,  0.05308263, -0.09439446,  0.02962488,  0.01787215 },
            { -0.03824937, -0.10281578, -0.02255414, -0.07432093,  0.00874586 },
            { -0.07423814, -0.00887295,  0.07557612,  0.02120109, -0.07820385 },
            {  0.03045120,  0.00170262, -0.07223649, -0.01239478,  0.06009742 },
        },
        {   // Channel 2
            { -0.07208544,  0.00213031, -0.03370327,  0.03150020, -0.01599023 },
            {  0.05856586, -0.02639595,  0.02208373, -0.04331324, -0.03234238 },
            {  0.08680606, -0.07782831,  0.03915849,  0.01303479, -0.01353052 },
            { -0.04550994,  0.04799955, -0.05101250, -0.06294923, -0.00666978 },
            { -0.00338114,  0.01140201,  0.07614859, -0.07528749,  0.07968055 },
        },
    },
    // Filter 25
    {
        {   // Channel 0
            { -0.00916815,  0.06765117, -0.04227654,  0.00992939, -0.00958129 },
            { -0.01058352, -0.07973113,  0.00293302,  0.02747060,  0.03674899 },
            {  0.01705131,  0.03079847,  0.12882625,  0.18273838,  0.08999462 },
            { -0.04418816, -0.01218111,  0.05093242,  0.12547041, -0.03123911 },
            {  0.02650845,  0.02881293, -0.01656534,  0.00123002, -0.01908227 },
        },
        {   // Channel 1
            { -0.02625949,  0.09711099, -0.00223882, -0.00326964,  0.00178284 },
            { -0.07227189,  0.00089685, -0.00009537,  0.03514371,  0.01657286 },
            {  0.03271219,  0.06802226, -0.00951785,  0.01998970, -0.02507662 },
            { -0.01296198,  0.05802819,  0.04237607,  0.02812491, -0.00741022 },
            {  0.01858677,  0.02709809, -0.01197802,  0.03130046, -0.00034209 },
        },
        {   // Channel 2
            { -0.00232845,  0.06334655, -0.04148111,  0.02945117,  0.04627407 },
            { -0.03312316,  0.01841320, -0.00584063,  0.06057662, -0.00995353 },
            {  0.07977609, -0.06508528, -0.00466324,  0.05578211, -0.01112411 },
            { -0.01412480, -0.03973464,  0.00840762, -0.03224842, -0.04217304 },
            {  0.07426590, -0.04258822, -0.08080215, -0.07887230,  0.08642362 },
        },
    },
    // Filter 26
    {
        {   // Channel 0
            {  0.00892685,  0.05202106, -0.00787978,  0.00976575,  0.01402952 },
            {  0.02473249, -0.03411992, -0.04143678,  0.00659219,  0.00240286 },
            {  0.00086512, -0.00394900,  0.04335245,  0.00528295,  0.01829291 },
            { -0.08628013, -0.03957267,  0.02795563, -0.05821337, -0.08173027 },
            { -0.02752377, -0.06193823, -0.02843963, -0.02861494, -0.06648833 },
        },
        {   // Channel 1
            {  0.08086474, -0.01144501,  0.00735983,  0.02092298, -0.03724569 },
            { -0.07323362,  0.08360909, -0.07355944, -0.08219972,  0.03989409 },
            {  0.02322385, -0.00626246, -0.07771027,  0.02602566,  0.07067888 },
            { -0.05194764, -0.03071150,  0.04112113, -0.06825072, -0.01071516 },
            { -0.01579044,  0.04881052,  0.02377220, -0.02372798, -0.00902828 },
        },
        {   // Channel 2
            { -0.05990462,  0.01830777,  0.02562878,  0.03689925,  0.00804761 },
            { -0.07586247,  0.05652935,  0.00978678, -0.02289042, -0.04448470 },
            {  0.02973562, -0.01486754,  0.03850682,  0.07933991, -0.00919699 },
            {  0.05639397, -0.04206458,  0.08424426, -0.08135000, -0.04065453 },
            {  0.02981439,  0.02911385, -0.02546062,  0.04966732, -0.02924636 },
        },
    },
    // Filter 27
    {
        {   // Channel 0
            {  0.01651496,  0.01606047, -0.03068237,  0.14375120,  0.01340822 },
            { -0.10069730, -0.06425716,  0.01862548, -0.05697811, -0.00524602 },
            { -0.00280918, -0.01264005,  0.03184125, -0.03503749, -0.01635938 },
            {  0.01541238, -0.00423338,  0.05104037,  0.05685968,  0.02821966 },
            { -0.00304109,  0.02900296, -0.02644678,  0.01089151, -0.10691534 },
        },
        {   // Channel 1
            { -0.07374091, -0.01743472, -0.02118365,  0.02160445,  0.04458700 },
            { -0.00650033,  0.04717145, -0.01280150, -0.02091631, -0.06319696 },
            {  0.03225497,  0.00145897,  0.03072272, -0.03436241, -0.02302339 },
            {  0.01815222, -0.08187290, -0.05324825, -0.13277997, -0.05345320 },
            { -0.01304938,  0.05347110, -0.00237966,  0.06814457, -0.00612037 },
        },
        {   // Channel 2
            { -0.05392331, -0.00209402,  0.00063432,  0.07319973, -0.06522417 },
            { -0.00319724, -0.09197576, -0.04188415,  0.00170341, -0.04987573 },
            {  0.10092640, -0.01719231, -0.04073617, -0.09839552,  0.03488096 },
            { -0.00296209, -0.11306506,  0.06679625, -0.01048773,  0.01664580 },
            {  0.03927803, -0.01219910,  0.01715417,  0.03114756,  0.00926063 },
        },
    },
    // Filter 28
    {
        {   // Channel 0
            { -0.05008357,  0.02632061, -0.02226556,  0.03419203, -0.01915307 },
            {  0.03146520,  0.08925549,  0.01390197,  0.04277328, -0.02318501 },
            {  0.03292112, -0.02157827,  0.04496435, -0.00924021, -0.06167930 },
            {  0.02627927,  0.03478777,  0.06634879, -0.12508772, -0.00211018 },
            { -0.00186600, -0.00738747, -0.03522205, -0.03390187, -0.10567760 },
        },
        {   // Channel 1
            { -0.04970837,  0.03621835, -0.01806615, -0.01272785, -0.06750517 },
            { -0.02087387,  0.04610854,  0.03751139,  0.01766279, -0.00275824 },
            {  0.00610185,  0.02948537, -0.02080093, -0.05413708, -0.02750679 },
            {  0.04664944, -0.01353841, -0.05925579, -0.10434620, -0.07002373 },
            {  0.04782283, -0.00116432, -0.01937895,  0.04459695, -0.01281553 },
        },
        {   // Channel 2
            {  0.07842027,  0.03770001, -0.07428182,  0.00437508,  0.01574915 },
            { -0.04329653, -0.00608471, -0.02550861,  0.06629114,  0.02445860 },
            { -0.05296512,  0.00510499,  0.06139156,  0.03541247, -0.02079813 },
            {  0.00588933, -0.06081163, -0.06890304, -0.08352348, -0.02407526 },
            { -0.05056044, -0.08644537,  0.01736254,  0.02202463, -0.01745809 },
        },
    },
    // Filter 29
    {
        {   // Channel 0
            { -0.01248362, -0.00658862,  0.01385615,  0.04330212,  0.01000564 },
            {  0.01374814, -0.05463585, -0.00105796, -0.04460808, -0.01284872 },
            { -0.04486099, -0.05180303, -0.03895768,  0.00043241,  0.05705277 },
            { -0.06187120, -0.00416524,  0.03716543, -0.03027558, -0.00410449 },
            { -0.07245509, -0.05354536, -0.01701804, -0.09591222,  0.01793478 },
        },
        {   // Channel 1
            { -0.00777619, -0.02304556, -0.04262624,  0.05770935,  0.02067013 },
            { -0.04282458, -0.07650048,  0.00335273,  0.01368257,  0.03973945 },
            { -0.03945326, -0.04508721, -0.07169773, -0.01035089,  0.00374735 },
            { -0.03441915, -0.03494663,  0.03439568, -0.06612260, -0.01191888 },
            { -0.05366391, -0.00731519, -0.00623652,  0.09447403, -0.05589936 },
        },
        {   // Channel 2
            {  0.05533600,  0.03845509, -0.09440804, -0.04706629,  0.00947852 },
            { -0.05796845, -0.01329025, -0.04551360, -0.05459205,  0.02600410 },
            {  0.02307740, -0.01955391, -0.00112438, -0.01088821,  0.00992522 },
            { -0.12149380,  0.03707432, -0.04065548, -0.06751163, -0.07463948 },
            {  0.03130658,  0.03414239,  0.02172559,  0.07057633,  0.01957460 },
        },
    },
    // Filter 30
    {
        {   // Channel 0
            { -0.00156438, -0.06129351,  0.02940600,  0.05837870,  0.02155297 },
            {  0.02657558, -0.04344814,  0.00618172, -0.01412253, -0.00728648 },
            {  0.02339158, -0.03034631, -0.08058561,  0.01144030, -0.02290004 },
            {  0.02348793, -0.07836705, -0.01586937, -0.01400390, -0.03454543 },
            {  0.05245824, -0.01224353,  0.02573452, -0.04094698, -0.04767222 },
        },
        {   // Channel 1
            { -0.02086922, -0.01762566,  0.08444882, -0.07095976, -0.02573795 },
            { -0.03882766, -0.04988263, -0.01347376,  0.01642339,  0.02680388 },
            {  0.06663790, -0.08519688, -0.05918241, -0.00515374,  0.01324132 },
            { -0.02198852, -0.03072272, -0.01074203,  0.00951768, -0.00854570 },
            { -0.01067097, -0.02282817, -0.02843803, -0.03103155, -0.01221064 },
        },
        {   // Channel 2
            { -0.04033235,  0.06665125, -0.08227586,  0.02733918,  0.01800637 },
            { -0.01226042, -0.02536973,  0.01270066, -0.02268507,  0.01407390 },
            { -0.03520096, -0.05704745, -0.03004222, -0.00465853,  0.03547849 },
            { -0.04507692,  0.00726188,  0.00060004, -0.09479282, -0.10841572 },
            {  0.00367994,  0.03546078,  0.00422316, -0.07122226,  0.07078290 },
        },
    },
    // Filter 31
    {
        {   // Channel 0
            { -0.01980451, -0.04204252, -0.00601290, -0.04732320,  0.03666539 },
            { -0.02234736, -0.01204987,  0.03547204, -0.05488881,  0.03549293 },
            { -0.04266699,  0.00947575,  0.02893609, -0.02443701,  0.04704435 },
            { -0.04786947, -0.03113099,  0.00670710, -0.00346507, -0.05854416 },
            {  0.03448087, -0.04524694, -0.00848302,  0.03901663,  0.03470493 },
        },
        {   // Channel 1
            {  0.09900088,  0.04417966,  0.04645377,  0.00559309,  0.06412912 },
            { -0.00459001, -0.06722171,  0.00284632, -0.02166885,  0.03365196 },
            {  0.02558529, -0.06456898, -0.04797580, -0.02613573,  0.02515832 },
            {  0.00987072, -0.09983046, -0.04881283, -0.06591786,  0.03173301 },
            {  0.04721765, -0.00789989, -0.00647156,  0.00180735,  0.00721652 },
        },
        {   // Channel 2
            {  0.08216651,  0.03529355, -0.03522903,  0.05925469, -0.11103607 },
            { -0.04596356, -0.00093451,  0.00800743, -0.02737622,  0.03618682 },
            { -0.00138973,  0.00420905,  0.05186108, -0.02845875, -0.07697618 },
            { -0.02335895, -0.02222876,  0.04074544,  0.05423278,  0.07858919 },
            { -0.02285735,  0.04194771, -0.03994640, -0.03831818, -0.05127247 },
        },
    },
    // Filter 32
    {
        {   // Channel 0
            { -0.06775104, -0.01688101,  0.03991402, -0.08703209, -0.00955170 },
            {  0.02578707,  0.04151064,  0.03871702, -0.05423184, -0.00746494 },
            { -0.01240297, -0.00418314,  0.05419244,  0.08456449, -0.04373209 },
            {  0.01303145,  0.02699537, -0.01828689,  0.01241885,  0.03866823 },
            { -0.00537570,  0.05493825, -0.01955062,  0.04854636,  0.00833955 },
        },
        {   // Channel 1
            {  0.00679786, -0.00187915,  0.06292876, -0.01486112, -0.06918801 },
            { -0.05020875,  0.08117758,  0.03953920, -0.02853251,  0.07752196 },
            {  0.03101257, -0.04653245,  0.04793562,  0.01655550,  0.00666165 },
            { -0.04100073,  0.04920949,  0.06113686,  0.06436712, -0.02614303 },
            {  0.01302940,  0.04206013,  0.05392107, -0.01573927, -0.03252289 },
        },
        {   // Channel 2
            {  0.04755508, -0.06053248, -0.04277213,  0.03893266,  0.04144487 },
            {  0.04687286,  0.00258995,  0.00443971, -0.07472268,  0.03865195 },
            { -0.02575956,  0.00596794,  0.00939150, -0.03750331, -0.02392895 },
            {  0.01544828,  0.03073828,  0.06200008,  0.02562543,  0.02358763 },
            { -0.00100511, -0.00026681,  0.00427284,  0.01144402, -0.02333279 },
        },
    },
    // Filter 33
    {
        {   // Channel 0
            { -0.02978295,  0.01219062, -0.03843047,  0.02110633,  0.03135962 },
            { -0.01913315, -0.07823521,  0.08635309,  0.02861035,  0.03284424 },
            { -0.04847447,  0.01502686,  0.00979074,  0.06262714,  0.06071143 },
            {  0.01082459,  0.00657001,  0.11043577,  0.11793116,  0.05547810 },
            { -0.07945400,  0.04197617,  0.01621183,  0.08323760,  0.00047202 },
        },
        {   // Channel 1
            {  0.00834964,  0.02824045, -0.07497665,  0.02571053,  0.03121598 },
            {  0.10190137,  0.01085291, -0.04227614, -0.00760106,  0.08872293 },
            {  0.06674340,  0.02500609,  0.03667104,  0.06168810,  0.01704319 },
            { -0.02650956,  0.05166677, -0.04865653, -0.00160513,  0.04301555 },
            {  0.02985530,  0.05543886, -0.01191113,  0.00874217, -0.00251747 },
        },
        {   // Channel 2
            { -0.00461672,  0.02523209, -0.10272392,  0.06498733,  0.01399597 },
            {  0.00193857, -0.04074939,  0.01336364,  0.01398022, -0.02328689 },
            { -0.05616169,  0.01036081, -0.06917958, -0.05798203, -0.02146121 },
            { -0.01944976,  0.03202756, -0.06860525, -0.00372610,  0.06873783 },
            {  0.02848239,  0.07724588,  0.03217280, -0.01619342, -0.01838234 },
        },
    },
    // Filter 34
    {
        {   // Channel 0
            {  0.03790559,  0.05119734, -0.11716539,  0.03555873, -0.02278788 },
            {  0.01057902,  0.00634563, -0.10829921, -0.03952175,  0.00889271 },
            { -0.04174907, -0.01846438, -0.02678564, -0.07739506, -0.01174306 },
            {  0.01490901,  0.08361838, -0.06428798, -0.06628110, -0.05908414 },
            { -0.00884238, -0.00324863,  0.00065665, -0.09598366, -0.06578849 },
        },
        {   // Channel 1
            { -0.05384552, -0.00834817, -0.01670996, -0.00351986,  0.00651235 },
            { -0.02951298,  0.07119097, -0.02087140, -0.03311514, -0.03589373 },
            {  0.00310898, -0.01127437,  0.00945778, -0.00768265, -0.02793321 },
            { -0.00039347, -0.00504613,  0.01659226,  0.00915688, -0.01103557 },
            { -0.04749416,  0.01394155,  0.00513713,  0.03096823,  0.04953017 },
        },
        {   // Channel 2
            { -0.04163972, -0.04661322, -0.00273541, -0.03146032, -0.01704666 },
            { -0.03162337, -0.01033813,  0.01791223,  0.04829798, -0.07140893 },
            { -0.05525304,  0.01307615,  0.07869016,  0.04431463,  0.04267634 },
            { -0.02770644, -0.01388683, -0.02334920,  0.02952273, -0.09142895 },
            { -0.04380416,  0.02647797, -0.04882200,  0.05799998,  0.03340691 },
        },
    },
    // Filter 35
    {
        {   // Channel 0
            {  0.02366978, -0.01345837,  0.03065852,  0.00311869, -0.04947003 },
            {  0.03798057, -0.03578558,  0.05343587,  0.07454508, -0.01985047 },
            {  0.10812656, -0.02238773,  0.05516780,  0.03423515, -0.00214919 },
            { -0.09450886, -0.02764623,  0.03627377,  0.02368889,  0.06496245 },
            { -0.04584949, -0.02421213, -0.03430662,  0.03812963,  0.03593064 },
        },
        {   // Channel 1
            { -0.00170447,  0.01346987, -0.01241503, -0.00613800,  0.05863663 },
            {  0.05920254,  0.03169146, -0.21983570,  0.04161750, -0.02829713 },
            {  0.00075093, -0.12125023,  0.02719416,  0.05904384,  0.01025545 },
            { -0.04669419,  0.00413196,  0.08176365, -0.04536041,  0.02272825 },
            {  0.04511006,  0.04962557,  0.06619141,  0.00122179, -0.03240214 },
        },
        {   // Channel 2
            {  0.00455277,  0.05763655, -0.02566585, -0.08127170,  0.01786483 },
            { -0.05474101,  0.10113399, -0.00271828,  0.05550904, -0.00868480 },
            {  0.02266020, -0.01803792,  0.12912823,  0.05923526,  0.03724374 },
            {  0.01478883, -0.01548512,  0.00807414, -0.10089281, -0.01501893 },
            {  0.03833546, -0.02932939, -0.06955781, -0.04370890, -0.03542228 },
        },
    },
    // Filter 36
    {
        {   // Channel 0
            {  0.00177609,  0.02537529,  0.00944988, -0.04537771,  0.01117118 },
            { -0.00946748,  0.00327901,  0.05021684, -0.08312689,  0.05097920 },
            { -0.01177038,  0.02483351,  0.00430443, -0.01662145, -0.06052771 },
            {  0.02761541, -0.04496353, -0.02914483,  0.00882924,  0.06710955 },
            {  0.01273247,  0.05849332, -0.09237028, -0.00169792, -0.04508855 },
        },
        {   // Channel 1
            {  0.00520472,  0.02627963,  0.07736147,  0.08093764,  0.00395596 },
            {  0.05142901,  0.03869989,  0.01600154,  0.02489858,  0.01754881 },
            { -0.01825026, -0.00338574, -0.05775975,  0.10109616,  0.05157514 },
            {  0.03681115,  0.10297191, -0.05153910, -0.04055392, -0.00503702 },
            { -0.04222730,  0.07159717,  0.08006767,  0.03869125, -0.04209821 },
        },
        {   // Channel 2
            {  0.05864473, -0.02261841,  0.04222618,  0.00117592,  0.00753351 },
            { -0.01437771, -0.03013055,  0.06634452,  0.01564913, -0.01072730 },
            { -0.13402641, -0.00311533,  0.02333925, -0.05066871, -0.07781786 },
            {  0.01003769,  0.02343259, -0.03505733, -0.05141956, -0.02723283 },
            {  0.07599548,  0.06483615, -0.07857498, -0.11198318, -0.01083235 },
        },
    },
    // Filter 37
    {
        {   // Channel 0
            { -0.02354742,  0.02360613, -0.04121186, -0.03740326,  0.05592930 },
            { -0.00598712,  0.03366922, -0.00732331,  0.00090188, -0.01812623 },
            { -0.05477959, -0.08898648, -0.02986854,  0.05542077, -0.01990653 },
            { -0.01119116, -0.08438531, -0.01341255,  0.00260702,  0.07915498 },
            {  0.02994670, -0.06897892, -0.01492810, -0.04193816, -0.01526516 },
        },
        {   // Channel 1
            {  0.04706768, -0.05256388, -0.03076454,  0.02907178,  0.01255696 },
            {  0.02717177,  0.05616387,  0.01524243,  0.01681744,  0.00546396 },
            { -0.02383381, -0.02689326,  0.00866847, -0.05090833, -0.03353744 },
            {  0.02436460, -0.02975368,  0.02377216,  0.00905434, -0.00013183 },
            { -0.07829990,  0.01418671,  0.05880025, -0.00635247, -0.00109758 },
        },
        {   // Channel 2
            { -0.04074450,  0.02551690,  0.02437733, -0.00678238, -0.00858001 },
            { -0.00772093,  0.02113924, -0.03636798, -0.00513950, -0.01803887 },
            { -0.01911285,  0.04039952,  0.08040857,  0.06893885, -0.03453502 },
            {  0.04456810,  0.06378036,  0.02644272, -0.00363441, -0.08979692 },
            { -0.03757394,  0.05907135, -0.06301301, -0.03200798, -0.06741201 },
        },
    },
    // Filter 38
    {
        {   // Channel 0
            {  0.06535423,  0.07171620, -0.02014506,  0.07171834,  0.02452855 },
            { -0.00819454, -0.03168099,  0.00026354, -0.12894662,  0.01789819 },
            { -0.05484957, -0.07702515,  0.02705120,  0.00846521, -0.06344020 },
            { -0.03129018,  0.02482849,  0.07123075, -0.01190081, -0.00617886 },
            {  0.03006862, -0.06548666, -0.00905132, -0.03587088,  0.07149857 },
        },
        {   // Channel 1
            { -0.06895860, -0.00390288,  0.01716049, -0.00106508, -0.01919389 },
            {  0.05717616,  0.04486627, -0.00679549, -0.03562149, -0.00901652 },
            { -0.03807350,  0.02385033,  0.04516163,  0.03148361,  0.00119847 },
            { -0.08129030, -0.06713357, -0.02255408,  0.00923328,  0.00510704 },
            { -0.09019176, -0.01065839, -0.00481643, -0.00040741,  0.05666972 },
        },
        {   // Channel 2
            { -0.03476713,  0.00732318,  0.02240731, -0.03220288, -0.01850817 },
            { -0.00751841, -0.07287851,  0.03747277, -0.01287294,  0.06121852 },
            {  0.05440560,  0.06524710,  0.03074761, -0.01258000,  0.05195140 },
            {  0.00342869, -0.02557976,  0.00699015, -0.03446365, -0.02950973 },
            { -0.02435425, -0.09341598, -0.02566302,  0.01459250, -0.05379816 },
        },
    },
    // Filter 39
    {
        {   // Channel 0
            {  0.02178317, -0.00261351,  0.08077274, -0.05303439, -0.02405535 },
            { -0.00201188,  0.02648741,  0.06215772,  0.01496699, -0.03989060 },
            {  0.02928899,  0.02357686, -0.01975656,  0.07788702, -0.02494042 },
            {  0.01475780,  0.08452124,  0.04251899,  0.00813323,  0.05940127 },
            {  0.02078485, -0.03232259,  0.04780870,  0.03822550,  0.00049577 },
        },
        {   // Channel 1
            { -0.01821731, -0.00680744,  0.00404784,  0.01859079, -0.01003562 },
            { -0.00993478,  0.01598745,  0.05053899, -0.05042559, -0.00102562 },
            {  0.00075531, -0.00794106, -0.07175666, -0.02701730, -0.07891210 },
            {  0.00921553,  0.05605019, -0.03716901,  0.03463403,  0.05025057 },
            { -0.03546904,  0.03401839,  0.02807551,  0.02238443, -0.02590654 },
        },
        {   // Channel 2
            {  0.05757060,  0.07649676, -0.00004633,  0.03943308,  0.04843750 },
            {  0.01360749,  0.02098106,  0.05112323, -0.01039666, -0.00111656 },
            {  0.05458568,  0.08322895,  0.03250768,  0.09455623,  0.04996138 },
            {  0.03841323, -0.01636418, -0.10049746, -0.02742094, -0.02085839 },
            {  0.00114638, -0.13217944,  0.04194709, -0.00585605,  0.02186739 },
        },
    },
    // Filter 40
    {
        {   // Channel 0
            {  0.05692991, -0.00733852,  0.01950750, -0.04473897, -0.03515990 },
            { -0.01051223, -0.01535742,  0.02124180, -0.00428277,  0.02376610 },
            {  0.00152252, -0.00147987, -0.01340153,  0.09252125, -0.00218300 },
            { -0.02080004, -0.03962938, -0.02883506,  0.00590583,  0.01878105 },
            {  0.01643319, -0.03913993,  0.08948864, -0.01114846,  0.03407323 },
        },
        {   // Channel 1
            {  0.00756108, -0.08714636, -0.00012708,  0.04877160, -0.03656407 },
            {  0.06189951,  0.03198015, -0.00116111, -0.02911953, -0.03016075 },
            {  0.01728352,  0.00468321,  0.11560483, -0.01103817,  0.06769489 },
            {  0.04041850,  0.08073106,  0.06633003, -0.06757144,  0.07527179 },
            { -0.02622481,  0.03608858,  0.07393774,  0.01647339,  0.01691600 },
        },
        {   // Channel 2
            {  0.10876901, -0.03227806,  0.03110686,  0.10713036, -0.01853536 },
            {  0.01934777, -0.05201413,  0.02740606,  0.03770823, -0.05996940 },
            {  0.01952685,  0.03956131, -0.06361313,  0.05616518,  0.03108734 },
            { -0.00441213,  0.09505141, -0.01473763,  0.00578296, -0.04918959 },
            { -0.01570393, -0.00206457, -0.05843547,  0.00080613, -0.00950179 },
        },
    },
    // Filter 41
    {
        {   // Channel 0
            {  0.05945824,  0.00807962,  0.05324912,  0.01497085, -0.01990615 },
            { -0.02804906, -0.05588722, -0.00374981, -0.06329674, -0.04271740 },
            { -0.02724594,  0.06283808,  0.03973970, -0.01406722,  0.02511966 },
            { -0.04767742,  0.02835345, -0.04608578, -0.05192277,  0.05087873 },
            {  0.01044439, -0.09470870, -0.01168833, -0.04796947, -0.06319246 },
        },
        {   // Channel 1
            { -0.02725544,  0.01538993, -0.01414950, -0.04539504, -0.01909179 },
            { -0.05554266,  0.00583027,  0.09497001,  0.05420446, -0.11641072 },
            {  0.02565090,  0.00844576, -0.00886323,  0.01629590,  0.09589214 },
            { -0.00011471, -0.01633444,  0.01444457, -0.00859577,  0.05566007 },
            { -0.03928097, -0.00909426, -0.06135136, -0.00200290, -0.00623814 },
        },
        {   // Channel 2
            {  0.02971360, -0.05331431, -0.03746616, -0.03037416,  0.06407027 },
            {  0.02001472,  0.02270657,  0.00743083,  0.03122305,  0.03267351 },
            { -0.04779683,  0.02565839, -0.01415289,  0.05931451, -0.03416295 },
            { -0.00490550,  0.06324971, -0.04049905, -0.10180379,  0.04302317 },
            { -0.01857859,  0.02112792,  0.02971875, -0.02566566, -0.03019913 },
        },
    },
    // Filter 42
    {
        {   // Channel 0
            { -0.02672470,  0.01931955, -0.06526197,  0.03322698, -0.02449408 },
            { -0.01448417, -0.01863930, -0.02868347, -0.02025366, -0.05001758 },
            { -0.01353179, -0.04043176, -0.05371003, -0.02588556, -0.05460628 },
            {  0.01014480, -0.01231765,  0.02549059, -0.03909736, -0.04096819 },
            { -0.07056469,  0.01606578, -0.04785129,  0.01694679, -0.00753599 },
        },
        {   // Channel 1
            { -0.03081672,  0.01562009,  0.02254460, -0.02606123, -0.00439835 },
            { -0.05940205,  0.02045769, -0.06210587,  0.00212593,  0.10177302 },
            {  0.04521491, -0.08033188,  0.12322073,  0.09585780,  0.01935347 },
            {  0.00061835, -0.00311033, -0.02909504, -0.02951563,  0.03898994 },
            {  0.06595434,  0.04924927, -0.07718325,  0.02945581, -0.13906783 },
        },
        {   // Channel 2
            { -0.05967465, -0.01375621, -0.04067683,  0.02159810, -0.04153597 },
            { -0.02717988, -0.11688749,  0.01633706, -0.04573056,  0.04825401 },
            {  0.04153345,  0.07585339, -0.03518493, -0.01897552,  0.01530359 },
            {  0.03582554,  0.00870777,  0.02416807,  0.03390569,  0.00960697 },
            {  0.02857503, -0.08750689, -0.00796255, -0.01023340,  0.00004331 },
        },
    },
    // Filter 43
    {
        {   // Channel 0
            {  0.03870625, -0.03464929,  0.01801648,  0.00540626,  0.01851506 },
            { -0.04633671, -0.00913400, -0.01443709, -0.00211028,  0.07457719 },
            { -0.01437004, -0.02479437, -0.10066088,  0.01772340, -0.09424123 },
            { -0.02376390,  0.04866377, -0.02154083, -0.11492868, -0.00077548 },
            { -0.00568435, -0.02605484,  0.00224700,  0.04554466,  0.01328580 },
        },
        {   // Channel 1
            {  0.05187160, -0.07624879, -0.03470476, -0.03521385, -0.02610390 },
            {  0.06284761,  0.04579970,  0.07581281,  0.01830636, -0.00120503 },
            {  0.01125280, -0.02818932, -0.03155201,  0.02949003, -0.01447249 },
            { -0.01304315, -0.00713420,  0.04917916, -0.08790905,  0.01385531 },
            { -0.04414757,  0.03111259, -0.01588522, -0.04299255, -0.02276325 },
        },
        {   // Channel 2
            { -0.03196252,  0.02832924, -0.00985488,  0.01257328, -0.00934522 },
            {  0.00062032, -0.00366949,  0.01228366,  0.02567006, -0.02461925 },
            { -0.02729373, -0.00448253, -0.06777901, -0.12721488,  0.00306050 },
            { -0.01870895, -0.02504432,  0.02214488,  0.01011668, -0.09171577 },
            { -0.03998023,  0.01840407, -0.02038481, -0.00390849,  0.01015860 },
        },
    },
};

#endif
