#ifndef FSRCNN_WEIGHTS_H
#define FSRCNN_WEIGHTS_H

#include "conv2d.h"

const fixed_4_8_t weights_layer_feature_extraction0[16][3][5][5] = {
    // Filter 0
    {
        {   // Channel 0
            {  0.10850356, -0.07831316,  0.03634930, -0.03737421, -0.00160389 },
            {  0.00167857,  0.06582163, -0.05203998, -0.02976968, -0.04323473 },
            {  0.11526418, -0.18132226, -0.08037940,  0.20038281,  0.01487966 },
            { -0.08558334,  0.09788717,  0.09255334, -0.12194094, -0.06885936 },
            {  0.02927184, -0.05138625,  0.03016133, -0.08161510,  0.03307742 },
        },
        {   // Channel 1
            { -0.10795410,  0.00069220,  0.06113355, -0.10692544,  0.02504919 },
            { -0.07308789, -0.04563817,  0.07779460, -0.10679922,  0.01226023 },
            { -0.11484424,  0.15726157,  0.32571760, -0.03565509, -0.08803161 },
            { -0.03496063, -0.06425205, -0.05631072,  0.00566133, -0.07235911 },
            {  0.03414236, -0.01856699, -0.06974380,  0.01353151, -0.04041128 },
        },
        {   // Channel 2
            { -0.01495972, -0.00332736,  0.00166141,  0.11011902, -0.03031454 },
            {  0.10654067, -0.13205260,  0.00659493,  0.04000425,  0.02666859 },
            { -0.00137347,  0.10824890, -0.08746795, -0.18168367,  0.09892846 },
            {  0.08224399, -0.02591858, -0.12242851, -0.09633838,  0.05917573 },
            { -0.03228892, -0.01954598,  0.10824116, -0.08505760, -0.07408271 },
        },
    },
    // Filter 1
    {
        {   // Channel 0
            {  0.13139327,  0.08803680,  0.05359527,  0.06031721,  0.06812993 },
            { -0.07427900,  0.01351529,  0.11747836,  0.04258110,  0.03938776 },
            { -0.12805578,  0.00877277,  0.04537961,  0.09859062, -0.05958924 },
            { -0.03709447, -0.11788428, -0.14449361, -0.10707759, -0.07667277 },
            { -0.05214232, -0.07653004, -0.05628234,  0.07526349,  0.02405516 },
        },
        {   // Channel 1
            { -0.14054134, -0.04502193, -0.01329379, -0.09917732,  0.02743981 },
            {  0.06467918,  0.03252192, -0.05654998,  0.01719780, -0.07574869 },
            { -0.03458544,  0.10478596,  0.02400614,  0.09937654, -0.06297852 },
            {  0.06017976,  0.03204670,  0.14726061,  0.07513267,  0.01027038 },
            { -0.00258896,  0.01511374,  0.04089637,  0.05529800,  0.17610769 },
        },
        {   // Channel 2
            { -0.09168357,  0.07601790,  0.08351596, -0.01692648,  0.10352330 },
            {  0.09810095,  0.14993098, -0.06280094,  0.08502565, -0.03822735 },
            {  0.08159351, -0.09023840, -0.15384410, -0.10553610,  0.12886718 },
            {  0.07025637,  0.04962476, -0.02265756,  0.00266991,  0.09087608 },
            {  0.00156842,  0.09012185,  0.00204005,  0.00326450, -0.04592108 },
        },
    },
    // Filter 2
    {
        {   // Channel 0
            { -0.03312222, -0.01750609, -0.01625989,  0.03399796, -0.01323229 },
            {  0.05303132,  0.02393138, -0.06026042, -0.04412797,  0.05752617 },
            {  0.04363457,  0.05885999, -0.07928412, -0.05008427,  0.01417529 },
            { -0.08566868, -0.05743855,  0.16946112,  0.03367303,  0.00948691 },
            {  0.00222252, -0.03066079, -0.03083267, -0.01173748, -0.02805218 },
        },
        {   // Channel 1
            {  0.00873292, -0.02118325,  0.06264649, -0.01819111,  0.04690781 },
            { -0.05109777,  0.05691940,  0.18608212, -0.01343716,  0.02813102 },
            {  0.00651451,  0.09685370, -0.37934580,  0.13000035, -0.01281076 },
            {  0.02142885,  0.18741594, -0.00102492,  0.08034387,  0.00146043 },
            { -0.03558582,  0.12705353, -0.06524304, -0.01739746,  0.04631624 },
        },
        {   // Channel 2
            { -0.03867010, -0.04359979, -0.02536975,  0.03624827, -0.05523579 },
            {  0.05805610,  0.10307048,  0.23827033,  0.04513872, -0.05102333 },
            { -0.03605208,  0.13849467, -0.14436926,  0.17248057, -0.00243401 },
            {  0.00290200, -0.11420280,  0.00917034, -0.02050340, -0.04134042 },
            {  0.04487808,  0.00721865, -0.11185361,  0.01968434,  0.03973480 },
        },
    },
    // Filter 3
    {
        {   // Channel 0
            {  0.01935482,  0.02417418,  0.01490444,  0.05907665, -0.04068930 },
            {  0.07148137,  0.04973105, -0.14720839,  0.13304108,  0.06624493 },
            { -0.11904716,  0.23824976,  0.33571041,  0.04938042,  0.17923306 },
            {  0.06678199,  0.00397798, -0.35676181, -0.06017060,  0.09041493 },
            { -0.03564866,  0.07205293,  0.16632076,  0.03104415, -0.05818756 },
        },
        {   // Channel 1
            {  0.02984739,  0.09902294,  0.04182230, -0.00465886,  0.00027512 },
            {  0.03307027, -0.01683951,  0.02947960, -0.06498689, -0.00258111 },
            { -0.05048927,  0.10446838,  0.59457231, -0.00038565, -0.01577998 },
            { -0.07790019,  0.00569222,  0.21418595,  0.16203484,  0.03716043 },
            {  0.03829401,  0.02090779,  0.04016252, -0.05891197,  0.07502238 },
        },
        {   // Channel 2
            {  0.10782016, -0.07660025,  0.02443886,  0.06476797, -0.04651000 },
            { -0.12451480,  0.15809016, -0.11628050,  0.06871846,  0.00689018 },
            {  0.09099110,  0.02882875, -0.15668263,  0.07253321,  0.05107009 },
            {  0.01752363,  0.06252735, -0.15077384,  0.08050781, -0.16938280 },
            {  0.01239154,  0.00489220, -0.02315998, -0.09482640,  0.08657491 },
        },
    },
    // Filter 4
    {
        {   // Channel 0
            { -0.05140395,  0.05181041, -0.02623861, -0.06480160, -0.02590405 },
            { -0.02417507, -0.10707473,  0.16739982, -0.07356450, -0.12524736 },
            { -0.02726753, -0.16837665,  0.18708235,  0.03113989,  0.02686565 },
            { -0.07131921,  0.06593233,  0.05339333, -0.15661521,  0.05135918 },
            {  0.04431546, -0.02630835, -0.06809171,  0.03571953,  0.02137676 },
        },
        {   // Channel 1
            { -0.07714839, -0.08143143,  0.06357735,  0.04113485, -0.02771213 },
            {  0.01353056, -0.04104151, -0.05763545, -0.07596805,  0.01209189 },
            {  0.04403558, -0.06857532,  0.00095692,  0.01854904,  0.07350612 },
            {  0.04936019, -0.02007621, -0.07354983, -0.09922162, -0.17463979 },
            { -0.04191536,  0.05072910,  0.13197899, -0.00559057,  0.07887769 },
        },
        {   // Channel 2
            { -0.03474418, -0.02239664,  0.06333724, -0.03700951, -0.05102770 },
            {  0.01656705, -0.01701956,  0.00460131,  0.08652110,  0.05104584 },
            {  0.00063140, -0.08297426, -0.25243375,  0.06443974, -0.03129603 },
            { -0.01110286,  0.09858172, -0.05222124,  0.16722858,  0.06399316 },
            { -0.07891674,  0.02531393, -0.13775338,  0.00145041, -0.03099292 },
        },
    },
    // Filter 5
    {
        {   // Channel 0
            {  0.00402262,  0.03317718,  0.01603831, -0.08427346,  0.01457633 },
            { -0.05543181,  0.17960687, -0.09917177, -0.16075318,  0.02312365 },
            { -0.04246059,  0.10144388,  0.12047224,  0.09878024, -0.13209970 },
            { -0.06357216, -0.03660000,  0.02188089, -0.07316156, -0.04184493 },
            { -0.01113809, -0.00355625,  0.06331876, -0.12175570,  0.11228283 },
        },
        {   // Channel 1
            { -0.00725585,  0.00498544, -0.16961911,  0.07981804, -0.11366633 },
            {  0.02777777,  0.01468325, -0.28617957,  0.05145603,  0.07400393 },
            {  0.16417387, -0.01817108, -0.35690251,  0.10233215, -0.15162271 },
            {  0.04695617, -0.00551775, -0.12767585,  0.00000852, -0.00883612 },
            {  0.06893430, -0.07645874,  0.06116886, -0.01673516, -0.01495278 },
        },
        {   // Channel 2
            {  0.07918205,  0.04426111,  0.13926575, -0.01906562,  0.00866659 },
            { -0.06642140,  0.04817735, -0.15365225,  0.01936412,  0.10362470 },
            {  0.01226943, -0.08753428, -0.44664285,  0.03456161,  0.01602509 },
            { -0.03862786,  0.08951202,  0.17596862,  0.14875872,  0.01660751 },
            {  0.05547845, -0.09322112,  0.03539283, -0.01147301, -0.04778231 },
        },
    },
    // Filter 6
    {
        {   // Channel 0
            { -0.12361369,  0.05774274,  0.07736654, -0.04325908,  0.08275613 },
            {  0.09569959,  0.10881327, -0.14991763,  0.00690050,  0.02918332 },
            { -0.05198734,  0.09966339, -0.12914990, -0.03247971, -0.06512649 },
            { -0.01214514,  0.00090643, -0.02999213,  0.07690729,  0.11981823 },
            {  0.06778987,  0.02142524,  0.00471571,  0.00617992,  0.02348072 },
        },
        {   // Channel 1
            {  0.12834024,  0.04445503, -0.09640387, -0.01372056, -0.05355860 },
            { -0.05243758,  0.02221170,  0.02259245,  0.04852004, -0.03900342 },
            {  0.01488787,  0.18985309,  0.18193197,  0.19586022,  0.00465602 },
            { -0.01082411,  0.04452905,  0.15289830,  0.10704829,  0.01333527 },
            { -0.06184103,  0.13558552,  0.06080526,  0.01010890, -0.02174457 },
        },
        {   // Channel 2
            {  0.03120249, -0.01354908, -0.03521246,  0.06064096, -0.12152307 },
            { -0.07265680,  0.06057253,  0.13226223, -0.04379500,  0.08203480 },
            { -0.03457863, -0.10172590, -0.11964681, -0.11052526,  0.11939468 },
            {  0.04927943,  0.05973010,  0.06201467, -0.07646473, -0.02006103 },
            { -0.02506271, -0.08587759,  0.00614295,  0.06670788,  0.02160428 },
        },
    },
    // Filter 7
    {
        {   // Channel 0
            { -0.05938264, -0.04440222,  0.15749539, -0.04837014, -0.01119427 },
            { -0.13250263,  0.14374517, -0.13426836, -0.04204695,  0.02386056 },
            {  0.16150880,  0.23606937, -0.00827560, -0.18164101,  0.15236114 },
            { -0.17669448,  0.12596565, -0.02373864,  0.02314646, -0.10392931 },
            { -0.00347563, -0.13141307,  0.01262613,  0.08815532, -0.03140650 },
        },
        {   // Channel 1
            { -0.03234632, -0.07403717,  0.08727229,  0.01185898,  0.01816312 },
            { -0.03008134,  0.11976494, -0.10319468,  0.02016415, -0.04913626 },
            { -0.07153154, -0.02524784,  0.18866064, -0.19508246,  0.04589235 },
            {  0.03565964, -0.00650907,  0.01938831, -0.03152835,  0.06175365 },
            {  0.04991895, -0.01702082, -0.10559370, -0.00435340,  0.02360286 },
        },
        {   // Channel 2
            {  0.07122423,  0.08188270, -0.05883765,  0.00091016,  0.00394573 },
            { -0.09293760,  0.12193608, -0.13407497,  0.06568966, -0.05193298 },
            {  0.04803738, -0.11318547,  0.30360621,  0.00635949, -0.18124205 },
            {  0.08024021, -0.20279032, -0.19659275,  0.03002411,  0.08810293 },
            { -0.03734798,  0.11070256,  0.06851079, -0.01245312,  0.07538472 },
        },
    },
    // Filter 8
    {
        {   // Channel 0
            { -0.00280562,  0.00924117,  0.00912840, -0.02696371,  0.05727708 },
            {  0.04449709,  0.10423058,  0.19976334, -0.00182665,  0.02467866 },
            { -0.04727431,  0.20821962,  0.50078934,  0.11157990,  0.10371029 },
            {  0.00894033,  0.07633185,  0.02921542, -0.07117429, -0.00159757 },
            {  0.07587060,  0.05346079,  0.06130261,  0.03420421, -0.01858248 },
        },
        {   // Channel 1
            {  0.03374605,  0.03944260,  0.00180248, -0.05532603, -0.06495927 },
            {  0.01214489,  0.11161896,  0.15836748,  0.03798293,  0.06991143 },
            { -0.13683753, -0.12240539, -0.13847491, -0.12677680, -0.01238388 },
            { -0.03665483,  0.16362588,  0.00046671,  0.14098834,  0.00808948 },
            { -0.02131056,  0.05795661,  0.06374075,  0.05125692, -0.00978254 },
        },
        {   // Channel 2
            {  0.05267869,  0.06276684,  0.02965300, -0.00244093,  0.01441474 },
            { -0.07623567,  0.01751805,  0.00516700, -0.00872456, -0.05948761 },
            {  0.09535612,  0.06842672, -0.06459811,  0.08353757, -0.01701446 },
            {  0.05396017,  0.01997781, -0.13661601, -0.03237163,  0.00336432 },
            { -0.05317451,  0.00599782,  0.06885609, -0.03480807,  0.06224216 },
        },
    },
    // Filter 9
    {
        {   // Channel 0
            { -0.03755609,  0.04421696, -0.01053596, -0.12212206,  0.02892481 },
            { -0.00092006, -0.04633625,  0.10454772, -0.00526492, -0.02750555 },
            { -0.02756033, -0.05044013,  0.15742478,  0.14135912, -0.07149030 },
            {  0.00196606, -0.09750982,  0.05505511, -0.15328659, -0.14654431 },
            { -0.04132913, -0.08172478,  0.08167919,  0.04528921, -0.04565302 },
        },
        {   // Channel 1
            {  0.05488061, -0.02815221, -0.03988064, -0.03085638,  0.01697793 },
            {  0.01828917, -0.02823602, -0.00756841, -0.00553351,  0.04754495 },
            { -0.03532542, -0.10045094, -0.04422371, -0.01601526, -0.02287478 },
            { -0.00315630,  0.06158178, -0.08245315,  0.03094653,  0.05147162 },
            { -0.00618871,  0.09002420,  0.06390269,  0.07398111, -0.03768312 },
        },
        {   // Channel 2
            { -0.10484762, -0.04561366, -0.11862611,  0.09125458,  0.02965634 },
            {  0.02880091, -0.01346485, -0.04034452,  0.04224455,  0.01009805 },
            {  0.02950689, -0.01103300, -0.18021947, -0.07834309,  0.00243528 },
            {  0.10432765, -0.09105416, -0.00540883, -0.05839827,  0.03448112 },
            { -0.01568134, -0.13990031,  0.01188385, -0.06863173,  0.09318002 },
        },
    },
    // Filter 10
    {
        {   // Channel 0
            {  0.06064747,  0.12758563, -0.01095026,  0.04946525,  0.05510832 },
            { -0.06748787, -0.04542514,  0.17223243,  0.06976590,  0.05362096 },
            { -0.09670816, -0.16744763,  0.13218305, -0.08273862,  0.05678017 },
            { -0.06030366,  0.04592493,  0.01403056,  0.09066760, -0.03597419 },
            { -0.01850623, -0.05374574,  0.02629610,  0.02766990,  0.02085089 },
        },
        {   // Channel 1
            {  0.01978181, -0.00862203,  0.02094376, -0.00352418, -0.02930868 },
            { -0.14440119,  0.01747771,  0.00696477, -0.06908865, -0.02150189 },
            {  0.05127172,  0.13340449,  0.06141290, -0.03136890,  0.05825034 },
            { -0.09072646,  0.04093228, -0.12259515,  0.15103884,  0.03378206 },
            {  0.04205716, -0.07466552,  0.05057865, -0.02791376,  0.11844595 },
        },
        {   // Channel 2
            {  0.01105291,  0.08488244,  0.02284698,  0.11634057, -0.05492889 },
            {  0.03660867, -0.02769377,  0.12550651, -0.08158640,  0.06063410 },
            { -0.10068794,  0.13254368,  0.38247079, -0.10153882,  0.02752217 },
            {  0.12400494, -0.01458334, -0.03112236, -0.05708278, -0.01247714 },
            {  0.01213252,  0.03881816,  0.11209196, -0.08584026,  0.03269377 },
        },
    },
    // Filter 11
    {
        {   // Channel 0
            {  0.04487457,  0.01678021,  0.01572110, -0.04357474,  0.02828798 },
            {  0.11599357, -0.04867410, -0.01822090, -0.14971156, -0.05174597 },
            { -0.06909718,  0.07427014, -0.36728621,  0.02643311, -0.03744361 },
            { -0.00454053, -0.10897294, -0.01799106, -0.09697980, -0.21083422 },
            {  0.06913877, -0.14713718,  0.00244017, -0.06674661,  0.05145127 },
        },
        {   // Channel 1
            { -0.12091187, -0.04947682,  0.05327950, -0.03631864, -0.06832675 },
            { -0.16114283, -0.09360312, -0.06592933,  0.00587805,  0.02042786 },
            {  0.06892006,  0.00766413, -0.19111779,  0.00956102, -0.00995061 },
            {  0.00439322, -0.10206925,  0.00226369,  0.01770930, -0.01113378 },
            { -0.04094561,  0.11315531,  0.11675156, -0.12043506, -0.11753371 },
        },
        {   // Channel 2
            { -0.00720939,  0.09085355,  0.05549886, -0.00878352, -0.01106131 },
            {  0.06043113, -0.04944869, -0.00749045, -0.01524239,  0.13188940 },
            {  0.12587646, -0.00342337, -0.27759355, -0.04823319, -0.13355552 },
            { -0.04821150, -0.01569573, -0.13807184,  0.06791193,  0.00693602 },
            {  0.03349053, -0.02327616,  0.00190642,  0.09220638, -0.13432613 },
        },
    },
    // Filter 12
    {
        {   // Channel 0
            { -0.02747699,  0.04904512, -0.00949707, -0.00333913,  0.04166984 },
            {  0.08495286, -0.09298093,  0.02366569, -0.02944973, -0.07164082 },
            {  0.04301421, -0.03490251,  0.32597667,  0.11655476, -0.08115820 },
            {  0.02078386,  0.07516988,  0.06120443,  0.09304703,  0.05666816 },
            { -0.02815202, -0.00778704, -0.05057428, -0.06550148, -0.00178106 },
        },
        {   // Channel 1
            {  0.01798993,  0.04810660, -0.05862276,  0.02453923, -0.07151733 },
            { -0.01814534,  0.08149935,  0.05489535, -0.01939095,  0.08968302 },
            {  0.00449881, -0.02069543,  0.17988992,  0.08913437, -0.11013999 },
            { -0.02261832,  0.09506451, -0.03699029,  0.00442083, -0.00211417 },
            { -0.00579237,  0.03171518,  0.00347438,  0.06986018, -0.03197407 },
        },
        {   // Channel 2
            { -0.01432560, -0.05549103,  0.05263637, -0.01065456, -0.03220662 },
            {  0.03893803, -0.04698428, -0.02525317,  0.07075731,  0.02486069 },
            { -0.08654567,  0.01388594,  0.13018174, -0.12972191, -0.00394684 },
            { -0.00799382, -0.00689703,  0.01325779,  0.04149130,  0.01798599 },
            {  0.02098136, -0.04524194, -0.01398396,  0.11770663, -0.02120446 },
        },
    },
    // Filter 13
    {
        {   // Channel 0
            { -0.03180352,  0.08780131,  0.02031981,  0.02850956,  0.08008763 },
            {  0.04966929,  0.09023435, -0.06583592, -0.08860310, -0.03393178 },
            { -0.07404781,  0.05126518, -0.10227701, -0.14997156, -0.03468742 },
            { -0.07226384, -0.15286793, -0.01946461,  0.03647082, -0.05882753 },
            {  0.00095076,  0.02112838,  0.05202226, -0.01828981,  0.04640517 },
        },
        {   // Channel 1
            { -0.06385991, -0.00309645,  0.01252796, -0.09441382,  0.00728210 },
            {  0.05782861, -0.05064936,  0.02309573, -0.09052884,  0.07864627 },
            {  0.02997315, -0.07906295,  0.14006680, -0.10669392, -0.04567619 },
            {  0.08350307, -0.01921898,  0.02164785, -0.03758528,  0.04758223 },
            { -0.03484783,  0.07497735, -0.02170652,  0.06787351,  0.00396713 },
        },
        {   // Channel 2
            { -0.12010418, -0.00117793,  0.13397308,  0.02199354, -0.08084839 },
            {  0.03031707,  0.12272921,  0.05176631,  0.09761467, -0.00063128 },
            {  0.01189580,  0.06858204,  0.19032739,  0.11577146,  0.03026354 },
            {  0.03766753,  0.06464174,  0.07513678,  0.05121182,  0.03548932 },
            {  0.00760367, -0.05083270, -0.10683053,  0.03785288,  0.00262610 },
        },
    },
    // Filter 14
    {
        {   // Channel 0
            { -0.04830823, -0.13136506,  0.09126019, -0.07418117, -0.11146233 },
            {  0.12119323, -0.10710161,  0.14021693, -0.09212898,  0.10329995 },
            { -0.00287121, -0.26966462,  0.33237678, -0.19280915, -0.04133656 },
            {  0.01370012, -0.07170703,  0.14396118,  0.05743676, -0.03483546 },
            {  0.03544392,  0.00031215,  0.06701002, -0.02069099,  0.00152584 },
        },
        {   // Channel 1
            { -0.00844643, -0.07555965,  0.02196998, -0.01990587,  0.07146905 },
            {  0.00640804, -0.03382784,  0.08610189, -0.01842797,  0.02418595 },
            {  0.15629557, -0.04327574,  0.18590771, -0.00534394,  0.01335063 },
            { -0.01028617,  0.05807029,  0.05469412, -0.03602338, -0.06168757 },
            {  0.04137226, -0.04444955, -0.05773692, -0.11087359, -0.04969418 },
        },
        {   // Channel 2
            {  0.02209235, -0.00710945, -0.18429253, -0.04167930,  0.09918865 },
            {  0.02416242,  0.00380409,  0.09772573,  0.02756842, -0.07278738 },
            {  0.01941588,  0.03077925,  0.35682636,  0.01952611,  0.01918977 },
            { -0.07104623, -0.11627061, -0.00777766, -0.05089389,  0.03248537 },
            { -0.01721120,  0.06305072, -0.03298732, -0.10742120, -0.04539480 },
        },
    },
    // Filter 15
    {
        {   // Channel 0
            { -0.00810349,  0.00605908,  0.04289912, -0.00230897,  0.03165064 },
            {  0.11188604,  0.00264289,  0.12443168, -0.04316253, -0.01592283 },
            { -0.06121059, -0.00116487, -0.15835910, -0.01921820,  0.14306141 },
            {  0.01774779,  0.02405174, -0.06468517, -0.04897900, -0.01126556 },
            {  0.01246148, -0.00266635,  0.03719932,  0.07408635, -0.00645033 },
        },
        {   // Channel 1
            { -0.02664544,  0.00575566,  0.03273168, -0.00641982, -0.08361430 },
            {  0.06306453,  0.12896372, -0.04614617,  0.04306582,  0.04318564 },
            { -0.08131392, -0.16270919,  0.01669378,  0.01304423,  0.08794917 },
            { -0.04302283, -0.01528126,  0.05674544,  0.01470152, -0.02508132 },
            {  0.05400449,  0.03543688,  0.02751588, -0.01470487, -0.03283692 },
        },
        {   // Channel 2
            {  0.07784143,  0.06910454,  0.01775417,  0.00980374, -0.00471289 },
            { -0.05146888, -0.00974728,  0.10138182,  0.07845156, -0.05634138 },
            {  0.01318230, -0.01412608,  0.18271139,  0.09634705, -0.13278233 },
            {  0.05575133,  0.00258877,  0.08002479, -0.05453680, -0.00051550 },
            { -0.04801603, -0.06518432, -0.04473452, -0.05168438,  0.07838498 },
        },
    },
};

const fixed_4_8_t conv_feature_extraction0_bias[16] = {
    -0.00212820, 
     0.02021190, 
     0.07892153, 
     0.03839842, 
    -0.02801248, 
    -0.15129818, 
     0.02985098, 
    -0.02597853, 
     0.01590065, 
    -0.07033218, 
    -0.00784320, 
    -0.03732989, 
     0.00602097, 
     0.01474223, 
     0.06270372, 
     0.00962951
};

const fixed_4_8_t conv_feature_extraction0_prelu[16] = {
     0.59444892, 
     0.98758274, 
     1.08224905, 
     0.52244031, 
     0.27300784, 
     0.44638732, 
     1.16674447, 
     0.83101767, 
     1.04808426, 
     0.30734381, 
     0.92822385, 
     0.30879927, 
     0.62450039, 
     0.99403024, 
     1.01396954, 
     1.03147101
};

const fixed_4_8_t weights_layer_shrink0[12][16] = {
    {
        -0.45822433,  0.42528862, -0.16828740,  0.50392824, -0.26748359, -0.07535019,  0.66653734,  0.33419245, -0.25809640, -0.67099589, 
        -0.77030736,  0.51176298, -0.33981919,  0.04374795,  0.13132074,  0.01112440 
    },
    {
         0.43683299,  0.25247023,  0.56306767, -0.41095018, -0.66162056, -0.16515583,  0.90297335,  0.15816045, -0.10569690,  0.28419453, 
         0.11684233,  0.08677576,  0.32225382, -0.31290179,  0.23445973, -0.03183160 
    },
    {
         1.03946233, -0.20863156, -0.38295230,  0.13378136, -0.67078006, -0.25875694,  0.18358316,  0.60889632,  0.41690433, -0.40084204, 
        -0.22191072, -0.56359667, -0.43617988,  0.65669215,  0.00356155, -0.32371432 
    },
    {
        -0.58916062,  0.23349252, -1.21394014, -0.45401642, -0.18319082, -0.25985870, -0.01653160, -1.17974246,  0.23098853,  0.56866229, 
        -0.22888337,  0.11925326, -0.55898231, -0.37459415, -0.44431901, -0.71131581 
    },
    {
         0.06571458,  0.10307296, -0.28663197,  0.26869383, -0.07496522, -0.26428059,  0.35324222, -0.00103598, -0.98924989, -0.58312887, 
         0.46845338, -0.07096173,  0.60141629,  0.12855266,  0.40897036, -0.41783360 
    },
    {
         0.45847595, -0.44765192, -0.38269034, -0.23124652,  0.10585050, -0.33837891, -0.31290200,  0.09066775, -0.14674143, -0.03161428, 
         0.59253210, -0.13515776,  0.39217424, -0.06849386, -0.40954867,  0.06131546 
    },
    {
        -0.00576747, -0.17739664,  0.80908936, -0.29145738, -0.12413732,  0.58558464,  0.18305753, -0.11327591, -0.75110698, -0.28271130, 
        -0.06439433,  0.19581464, -0.49547544,  0.21354061, -0.16238421, -0.14642566 
    },
    {
        -0.07138021, -0.15091518, -0.29405874,  0.17703737, -0.17001249, -0.10608599, -0.55977654,  0.27289754,  0.35462540,  0.16158085, 
         0.27679518, -0.38528278,  1.43473804,  0.21704346,  0.50385833, -0.06126628 
    },
    {
         0.65700978, -0.17206942, -0.71801966, -0.20260055,  0.04473042, -0.57358849,  0.41208902,  0.59171283, -0.16055639, -0.14850374, 
         0.12665188,  0.26571065, -0.14980111, -0.16179089, -0.12941183,  0.31990552 
    },
    {
         0.11041474, -0.01049710, -0.90789807, -0.21279117, -0.15197435,  0.51008689,  0.32865861, -0.72322369, -0.23859866, -0.48339131, 
        -0.50535673, -0.64264476, -0.25599775,  0.50935799, -0.18796088,  0.49866119 
    },
    {
        -0.82476014, -0.32016549,  0.55037868, -0.37167811, -0.23844296, -0.09834544, -0.42772639,  0.27319303,  0.40293631, -0.22896628, 
         0.38046888,  0.25889546, -0.39451906,  0.38985646,  0.26722282,  0.80060542 
    },
    {
        -0.50930864, -0.18957675,  0.05912525, -0.22854427,  0.54572403,  1.28121698, -0.20955162,  0.37963933, -0.05550214, -0.33251640, 
         0.15474138,  0.46409738, -0.08495922, -0.52163464, -0.21973294, -0.41542384 
    }
};

const fixed_4_8_t conv_shrink0_bias[12] = {
     0.04075485, 
    -0.01220840, 
     0.01439911, 
     0.01399817, 
     0.01260470, 
    -0.08219830, 
    -0.03249880, 
    -0.01376624, 
     0.03713043, 
    -0.02899897, 
     0.00832917, 
     0.05346787
};

const fixed_4_8_t conv_shrink0_prelu[12] = {
     1.00264418, 
     1.05826890, 
     0.30044535, 
     0.29436088, 
     0.99846226, 
     0.50113243, 
     0.38129053, 
     2.09811020, 
     0.38788170, 
     0.33867779, 
     0.99803424, 
     0.28796774
};

const fixed_4_8_t weights_layer_map0[12][12][3][3] = {
    // Filter 0
    {
        {   // Channel 0
            { -0.02553161, -0.06104194,  0.04367753 },
            {  0.22129112, -0.26623070,  0.08248672 },
            {  0.04879088, -0.12294374, -0.12119164 },
        },
        {   // Channel 1
            {  0.20339510, -0.25191158,  0.20514196 },
            {  0.13172056,  0.15444535, -0.23161232 },
            { -0.02754954, -0.10717548, -0.03408572 },
        },
        {   // Channel 2
            { -0.04410604,  0.04974839, -0.07738376 },
            { -0.03066760, -0.29607239,  0.13887976 },
            { -0.04240068,  0.16852604, -0.01135146 },
        },
        {   // Channel 3
            {  0.13558000,  0.34744608,  0.18395679 },
            { -0.02599351, -0.35688353,  0.14404531 },
            { -0.02318741,  0.10866702, -0.00480274 },
        },
        {   // Channel 4
            {  0.12107633,  0.23191936,  0.06291914 },
            {  0.10267286, -0.55662811,  0.09178741 },
            {  0.03774974, -0.11512992,  0.08103862 },
        },
        {   // Channel 5
            { -0.10436639,  0.04482431,  0.00668319 },
            { -0.03770379, -0.14180458,  0.18782769 },
            {  0.07652764,  0.16171466, -0.00317888 },
        },
        {   // Channel 6
            { -0.06831771, -0.09086525,  0.16830020 },
            { -0.15515670,  0.09974873, -0.10110708 },
            { -0.00664556,  0.17695519,  0.17124455 },
        },
        {   // Channel 7
            {  0.18592195,  0.17522572, -0.02868993 },
            {  0.02567101, -0.05076811,  0.08408006 },
            { -0.09087187, -0.15993865, -0.13082677 },
        },
        {   // Channel 8
            {  0.29675815,  0.18546993, -0.12869431 },
            {  0.06880528, -0.11481191,  0.15327667 },
            { -0.07612078, -0.06170894, -0.06627931 },
        },
        {   // Channel 9
            {  0.16882692, -0.03568048, -0.02253596 },
            {  0.08299198, -0.12299669,  0.23407936 },
            { -0.16532768, -0.01249379, -0.10772612 },
        },
        {   // Channel 10
            {  0.17236285, -0.04643222,  0.19691648 },
            { -0.24360116, -0.09458975,  0.19966927 },
            {  0.09479547, -0.44156322, -0.05125600 },
        },
        {   // Channel 11
            {  0.03114859,  0.05020754,  0.17157461 },
            {  0.09466425,  0.21543404, -0.09200715 },
            {  0.05803068,  0.07442864,  0.02776735 },
        },
    },
    // Filter 1
    {
        {   // Channel 0
            { -0.14957321,  0.03404108, -0.14148808 },
            { -0.15742804, -0.16562298, -0.12508397 },
            {  0.04586932,  0.03669939, -0.25735357 },
        },
        {   // Channel 1
            {  0.05734572,  0.19518615,  0.23621975 },
            { -0.09447847,  0.00637885,  0.03906385 },
            {  0.06302743, -0.17121217, -0.47173566 },
        },
        {   // Channel 2
            {  0.04055436, -0.18716274, -0.04946807 },
            { -0.12907830, -0.05945818, -0.16250215 },
            { -0.07259798, -0.12140602, -0.24630333 },
        },
        {   // Channel 3
            { -0.14708489, -0.19646588,  0.07623614 },
            { -0.05881531,  0.04408230,  0.02328582 },
            { -0.15676534, -0.01919034,  0.21556275 },
        },
        {   // Channel 4
            { -0.23026420,  0.12561852, -0.04936269 },
            { -0.17598993,  0.08020397, -0.03029837 },
            {  0.08188064, -0.08208491, -0.08326275 },
        },
        {   // Channel 5
            { -0.04546108, -0.12722760,  0.14245021 },
            {  0.02899199, -0.53392106,  0.24367015 },
            {  0.03898030, -0.23794004, -0.01482474 },
        },
        {   // Channel 6
            {  0.14407429,  0.05586335,  0.20026053 },
            {  0.04510038, -0.34388894, -0.19341809 },
            { -0.07789652, -0.04887909,  0.07129075 },
        },
        {   // Channel 7
            { -0.10062559, -0.00934163, -0.12948605 },
            {  0.05245241,  0.37401336, -0.33463299 },
            {  0.07808923, -0.01403696, -0.24433075 },
        },
        {   // Channel 8
            {  0.10658285,  0.31256542,  0.16321021 },
            { -0.16606817, -0.18410861, -0.10412394 },
            {  0.06761850,  0.15679023,  0.07585935 },
        },
        {   // Channel 9
            { -0.04680070, -0.06936920, -0.07828560 },
            { -0.03855931, -0.22690308,  0.13643377 },
            {  0.10357441,  0.21277270,  0.22622538 },
        },
        {   // Channel 10
            { -0.00863745, -0.23822349,  0.12581415 },
            { -0.09115993,  0.22459655,  0.00075758 },
            {  0.11440437, -0.00955667, -0.09633356 },
        },
        {   // Channel 11
            {  0.07346422,  0.10431112,  0.15948682 },
            {  0.16984978,  0.01879660,  0.05670398 },
            { -0.00841277, -0.10990034,  0.02164105 },
        },
    },
    // Filter 2
    {
        {   // Channel 0
            {  0.00617150,  0.12782195,  0.22396472 },
            {  0.23928131,  0.17446102, -0.05253762 },
            { -0.13406172, -0.09267672, -0.02948134 },
        },
        {   // Channel 1
            { -0.01342673,  0.10670300, -0.11071991 },
            {  0.19912177,  0.33342662, -0.10600338 },
            {  0.17488782,  0.05422112,  0.02403825 },
        },
        {   // Channel 2
            {  0.02399033, -0.11274647, -0.11047637 },
            { -0.01315507,  0.53550357, -0.21805631 },
            {  0.03025164, -0.05604594,  0.13090357 },
        },
        {   // Channel 3
            {  0.27785620,  0.14818011, -0.00608552 },
            {  0.02905037, -0.02095908, -0.08310751 },
            {  0.07851830,  0.15393689,  0.03929222 },
        },
        {   // Channel 4
            { -0.12966590,  0.13587561,  0.03524046 },
            {  0.18663891,  0.16358282, -0.06699935 },
            { -0.28770110,  0.16339040,  0.05742126 },
        },
        {   // Channel 5
            { -0.03868893,  0.01617625,  0.11024336 },
            { -0.02502028,  0.08608780,  0.09340269 },
            { -0.25195804,  0.09656128, -0.06497270 },
        },
        {   // Channel 6
            {  0.07024734, -0.16524583, -0.10023534 },
            { -0.08856456, -0.09655486,  0.18174353 },
            {  0.10084744, -0.05505552, -0.08484173 },
        },
        {   // Channel 7
            { -0.00169150,  0.10541675,  0.24087715 },
            {  0.03770179,  0.16773306, -0.12393849 },
            { -0.03528770, -0.22847089,  0.10051851 },
        },
        {   // Channel 8
            { -0.05664974, -0.14471152,  0.19357412 },
            {  0.00757085,  0.19584188,  0.07432798 },
            {  0.08250343, -0.00501850, -0.07325009 },
        },
        {   // Channel 9
            { -0.12663834,  0.08552798, -0.00233982 },
            { -0.00894357,  0.01680096, -0.09146508 },
            {  0.19469102,  0.03248801,  0.05904267 },
        },
        {   // Channel 10
            { -0.00440197,  0.03998208,  0.03579078 },
            { -0.20597771, -0.33503771,  0.15157774 },
            { -0.03402354, -0.08342673,  0.00623231 },
        },
        {   // Channel 11
            { -0.07991809,  0.12483542, -0.03378040 },
            { -0.08996125, -0.10774326, -0.01530467 },
            {  0.07808852, -0.16844712,  0.30508673 },
        },
    },
    // Filter 3
    {
        {   // Channel 0
            { -0.15851189, -0.20109974, -0.05770494 },
            {  0.15572256, -0.03612475, -0.23366597 },
            {  0.09023254,  0.14330158, -0.14982541 },
        },
        {   // Channel 1
            {  0.20196623, -0.02142036,  0.11210531 },
            { -0.06207089,  0.14465168,  0.12806460 },
            { -0.02831231, -0.27073786,  0.05936071 },
        },
        {   // Channel 2
            { -0.08644356, -0.03262455, -0.15878808 },
            { -0.18780823,  0.10220434, -0.36775470 },
            { -0.04468390, -0.06474128, -0.30022952 },
        },
        {   // Channel 3
            { -0.12964198,  0.02546063,  0.28687650 },
            { -0.29132017,  0.08311784,  0.43776664 },
            { -0.08529415, -0.05053730,  0.01671357 },
        },
        {   // Channel 4
            {  0.07750931,  0.10135524,  0.01479157 },
            {  0.07680681, -0.01777232, -0.11255865 },
            {  0.09786930,  0.01136152,  0.06243271 },
        },
        {   // Channel 5
            { -0.06274257, -0.05703118,  0.05812126 },
            {  0.26354107,  0.35607913,  0.11648744 },
            { -0.28708541, -0.01254068,  0.29287308 },
        },
        {   // Channel 6
            { -0.13180675,  0.00022289,  0.31571788 },
            { -0.03533963,  0.06918304,  0.09120353 },
            { -0.28295484, -0.05539685,  0.21054298 },
        },
        {   // Channel 7
            { -0.14479370,  0.04907661, -0.21676387 },
            {  0.02609770,  0.14541541, -0.09362684 },
            {  0.06660850,  0.00001409, -0.21363930 },
        },
        {   // Channel 8
            {  0.14010872, -0.02860416, -0.10955977 },
            {  0.01298376, -0.04733343, -0.01953046 },
            { -0.05427403,  0.08345586,  0.20778851 },
        },
        {   // Channel 9
            { -0.06732351,  0.22621289,  0.26058924 },
            { -0.11462981, -0.26975179, -0.00315395 },
            {  0.04953136,  0.48089215,  0.29149726 },
        },
        {   // Channel 10
            {  0.12457182, -0.02674467,  0.02213842 },
            {  0.20027658, -0.12138472, -0.06228040 },
            { -0.11877333, -0.48118407, -0.22854123 },
        },
        {   // Channel 11
            { -0.23151229, -0.04614327,  0.05591622 },
            {  0.02477065, -0.10539213,  0.00190966 },
            { -0.19614881,  0.02783394,  0.04165376 },
        },
    },
    // Filter 4
    {
        {   // Channel 0
            { -0.04398990,  0.17375058,  0.06115065 },
            {  0.07886513,  0.13512649,  0.01381538 },
            {  0.04361725, -0.18313281, -0.05463174 },
        },
        {   // Channel 1
            { -0.11606181, -0.08412068, -0.05791722 },
            { -0.22513901,  0.07850920,  0.07549587 },
            { -0.07530702, -0.17005759, -0.13957436 },
        },
        {   // Channel 2
            {  0.15095514,  0.04152995, -0.22623603 },
            {  0.14811607, -0.12822376, -0.07718426 },
            {  0.23222879,  0.14266516,  0.06929357 },
        },
        {   // Channel 3
            { -0.06165215,  0.12193006,  0.40514728 },
            {  0.19173637,  0.23988585, -0.04607660 },
            { -0.07108517,  0.01813019,  0.06759625 },
        },
        {   // Channel 4
            {  0.00432587, -0.00472107,  0.08395871 },
            { -0.11300023, -0.00040627, -0.06254946 },
            {  0.07252840,  0.07115619,  0.05978801 },
        },
        {   // Channel 5
            {  0.25785482, -0.07221443,  0.03838018 },
            { -0.13799374, -0.17288232,  0.05643298 },
            {  0.28183544,  0.16503020, -0.02776120 },
        },
        {   // Channel 6
            {  0.01697905,  0.16613278,  0.03136254 },
            { -0.04291220,  0.21790798,  0.07943641 },
            {  0.10668740,  0.15683287,  0.08898091 },
        },
        {   // Channel 7
            { -0.15221889, -0.12886362, -0.11418758 },
            { -0.03241547,  0.12538195, -0.09643223 },
            { -0.09937560, -0.02012220,  0.03642460 },
        },
        {   // Channel 8
            {  0.14368215, -0.05728664, -0.00800684 },
            { -0.06193122, -0.22423252,  0.30901259 },
            { -0.07333934,  0.09961940,  0.03380388 },
        },
        {   // Channel 9
            {  0.17439841,  0.11847146,  0.01613933 },
            {  0.13656610, -0.20493184,  0.21389091 },
            {  0.04006731, -0.21303232, -0.20191257 },
        },
        {   // Channel 10
            {  0.16618571,  0.17389150, -0.03410404 },
            { -0.05557527,  0.36265090,  0.01760600 },
            { -0.05241364, -0.18647739, -0.13280740 },
        },
        {   // Channel 11
            { -0.00824257, -0.09089579,  0.04379725 },
            { -0.00567414,  0.24010675, -0.05077291 },
            { -0.04407294, -0.06766403,  0.00229702 },
        },
    },
    // Filter 5
    {
        {   // Channel 0
            {  0.08888166,  0.02607890, -0.16637103 },
            {  0.02805541,  0.08696349, -0.13764589 },
            { -0.10146396,  0.03626890, -0.02197159 },
        },
        {   // Channel 1
            {  0.12745672,  0.00323612, -0.04602291 },
            {  0.08758909, -0.08859290,  0.11811749 },
            { -0.05933127, -0.05493490,  0.01338704 },
        },
        {   // Channel 2
            { -0.06027323,  0.10120578, -0.18632704 },
            { -0.40619263,  0.11810783, -0.07288627 },
            { -0.03219769,  0.50659496, -0.10534757 },
        },
        {   // Channel 3
            { -0.06572025,  0.16295016, -0.05687008 },
            { -0.01785233,  0.03125151, -0.22928184 },
            { -0.13151589,  0.13710806, -0.08423539 },
        },
        {   // Channel 4
            { -0.07834429, -0.07413090, -0.08036771 },
            {  0.15475652,  0.07165133, -0.18728574 },
            { -0.01162647,  0.02220934, -0.03288099 },
        },
        {   // Channel 5
            { -0.05437754, -0.04020420, -0.24250688 },
            {  0.39360586, -0.22095621, -0.02429808 },
            { -0.07848181, -0.13056800,  0.04587756 },
        },
        {   // Channel 6
            { -0.12286874,  0.12253858, -0.14131302 },
            {  0.12721001,  0.50565481,  0.00337865 },
            {  0.25620764,  0.02399794, -0.08190417 },
        },
        {   // Channel 7
            { -0.19531263,  0.39730281, -0.34280622 },
            { -0.01887845, -0.34699494,  0.05506060 },
            { -0.03130214,  0.08108495, -0.10176153 },
        },
        {   // Channel 8
            { -0.07557786,  0.03570008, -0.00798958 },
            { -0.22486006, -0.10439352,  0.21679510 },
            { -0.08137497, -0.25829920,  0.07798022 },
        },
        {   // Channel 9
            {  0.06529574, -0.09456729, -0.12925664 },
            {  0.05173743,  0.22449489,  0.00749990 },
            {  0.21346582,  0.04597059, -0.25053301 },
        },
        {   // Channel 10
            {  0.06547676,  0.12683837, -0.04348978 },
            {  0.38227734, -0.28297520, -0.12253590 },
            { -0.05190628, -0.23256944,  0.01846566 },
        },
        {   // Channel 11
            {  0.41045520,  0.02307851, -0.00406432 },
            { -0.02301233, -0.03407731, -0.02395439 },
            {  0.16117562,  0.24771132, -0.28650433 },
        },
    },
    // Filter 6
    {
        {   // Channel 0
            { -0.18402231, -0.01217988, -0.07016683 },
            { -0.03647716, -0.13631576,  0.13257422 },
            { -0.07032876,  0.10419408,  0.02347755 },
        },
        {   // Channel 1
            {  0.10167296, -0.08761472, -0.10871045 },
            { -0.03575845,  0.11947177,  0.01839147 },
            { -0.05338714, -0.12276411,  0.04106846 },
        },
        {   // Channel 2
            { -0.04218727,  0.19236992, -0.01934389 },
            { -0.10874294,  0.08078288,  0.09240507 },
            { -0.09158643,  0.04091263, -0.08033777 },
        },
        {   // Channel 3
            { -0.11918747,  0.15955667,  0.21553485 },
            {  0.02498085,  0.02889293, -0.05801348 },
            { -0.03883690,  0.15664758,  0.18962680 },
        },
        {   // Channel 4
            {  0.16940434,  0.19731024,  0.09129855 },
            {  0.02772622,  0.04374831, -0.03556498 },
            {  0.08039235,  0.03367873,  0.01513942 },
        },
        {   // Channel 5
            {  0.06208811,  0.12432318,  0.14291871 },
            {  0.14217837, -0.16257633, -0.14422373 },
            { -0.09418017,  0.06175398, -0.11228890 },
        },
        {   // Channel 6
            { -0.08555714,  0.03551637,  0.21226631 },
            { -0.10747927, -0.16892044,  0.03810967 },
            { -0.30434138,  0.17348439,  0.00156425 },
        },
        {   // Channel 7
            { -0.05153931,  0.26847312,  0.01564355 },
            {  0.21420866,  0.26911494,  0.03277517 },
            { -0.17316911,  0.31367862, -0.17112516 },
        },
        {   // Channel 8
            { -0.08521951, -0.01345083,  0.03049853 },
            { -0.16283569, -0.38438568, -0.19738892 },
            {  0.15118229, -0.23506260,  0.07759737 },
        },
        {   // Channel 9
            {  0.34378567, -0.10269941,  0.10541864 },
            { -0.06194611,  0.06318198, -0.05113498 },
            {  0.02040966,  0.11681318, -0.13256185 },
        },
        {   // Channel 10
            {  0.27056396,  0.01194725,  0.03156150 },
            { -0.00211053,  0.11257301,  0.04151299 },
            {  0.02879377,  0.00584891, -0.15063719 },
        },
        {   // Channel 11
            {  0.18778148,  0.07031454,  0.03207776 },
            { -0.07367931,  0.11195294,  0.18431439 },
            { -0.27897373, -0.03746277,  0.05183544 },
        },
    },
    // Filter 7
    {
        {   // Channel 0
            {  0.06788811,  0.15631355,  0.06641748 },
            { -0.11163144,  0.05902182,  0.20601770 },
            { -0.09465010, -0.00453712,  0.05835857 },
        },
        {   // Channel 1
            {  0.00571397,  0.21427113,  0.12211629 },
            {  0.08910733, -0.01587044, -0.00406815 },
            {  0.05796406, -0.01652720,  0.18843313 },
        },
        {   // Channel 2
            {  0.07372735, -0.22167352, -0.02632863 },
            {  0.04874501,  0.14664750,  0.00630241 },
            {  0.09184752,  0.24204263, -0.06572610 },
        },
        {   // Channel 3
            {  0.15940778, -0.13471277,  0.13424549 },
            {  0.17395969, -0.07890353,  0.04577874 },
            { -0.11631773,  0.00363876, -0.13870001 },
        },
        {   // Channel 4
            {  0.04574534,  0.26829129, -0.10199895 },
            { -0.19928584,  0.41431516,  0.02280609 },
            {  0.05339235, -0.13950260, -0.22368383 },
        },
        {   // Channel 5
            {  0.05469391, -0.03492161,  0.11406839 },
            {  0.15639262, -0.05032228,  0.04642757 },
            { -0.07879765, -0.09299331,  0.21112032 },
        },
        {   // Channel 6
            {  0.06128490, -0.05739451, -0.00551338 },
            {  0.06523027, -0.09486133,  0.06353498 },
            {  0.32644919,  0.11025924,  0.22591729 },
        },
        {   // Channel 7
            {  0.19945027, -0.05445994,  0.07614095 },
            {  0.01367301,  0.17648284, -0.00131775 },
            { -0.03854920,  0.00660826, -0.05395081 },
        },
        {   // Channel 8
            { -0.08445503,  0.20731430, -0.09317898 },
            {  0.02719791,  0.01224791,  0.27997941 },
            { -0.30589822, -0.29948732, -0.07861090 },
        },
        {   // Channel 9
            {  0.06535135,  0.15555270, -0.15336467 },
            {  0.36231467,  0.00391101, -0.09689451 },
            {  0.05536758,  0.18733586,  0.13791011 },
        },
        {   // Channel 10
            {  0.03702377,  0.02255453,  0.16728494 },
            {  0.11949706, -0.11871772,  0.00691350 },
            { -0.08443215, -0.15592228,  0.10173471 },
        },
        {   // Channel 11
            {  0.28247768, -0.06886522, -0.12885059 },
            { -0.05893991, -0.23985852, -0.21888366 },
            {  0.16659303,  0.08452689,  0.28766951 },
        },
    },
    // Filter 8
    {
        {   // Channel 0
            { -0.04389247, -0.11551210, -0.00438174 },
            {  0.13038857, -0.08519159,  0.12124762 },
            { -0.19115376,  0.04323834,  0.01256157 },
        },
        {   // Channel 1
            { -0.03792951, -0.33501223,  0.14582540 },
            { -0.38494918,  0.03823191, -0.29998970 },
            {  0.23174836,  0.14660688,  0.06853982 },
        },
        {   // Channel 2
            {  0.02909305, -0.08288461, -0.09081757 },
            { -0.01828711,  0.13663405, -0.11490101 },
            { -0.03992292,  0.00008757,  0.00107801 },
        },
        {   // Channel 3
            {  0.04077016,  0.04043093,  0.01679585 },
            {  0.16576909, -0.22024673, -0.12383739 },
            {  0.08740938,  0.13995488,  0.00335353 },
        },
        {   // Channel 4
            { -0.05936721, -0.21075086, -0.05116025 },
            {  0.00822496,  0.20208831, -0.03231662 },
            { -0.08978960, -0.04320484, -0.00953698 },
        },
        {   // Channel 5
            {  0.18106146,  0.01322390,  0.13346241 },
            { -0.01838170, -0.00719112,  0.01992370 },
            { -0.16029297, -0.11993514,  0.12176175 },
        },
        {   // Channel 6
            {  0.03024010,  0.17136911,  0.25540981 },
            { -0.04442232, -0.15750150,  0.10527276 },
            {  0.02348853, -0.06480584,  0.06256083 },
        },
        {   // Channel 7
            { -0.17901129, -0.05418433, -0.30123010 },
            {  0.11096387,  0.11994854, -0.03100861 },
            { -0.08230326, -0.04876744,  0.05350026 },
        },
        {   // Channel 8
            {  0.07401977, -0.31920993,  0.10432321 },
            {  0.21751475,  0.19266839,  0.07206399 },
            {  0.14617909, -0.23874465, -0.01234931 },
        },
        {   // Channel 9
            {  0.17886643, -0.13574845, -0.02029641 },
            { -0.13768031, -0.17105764,  0.17160371 },
            { -0.05036219, -0.07807198,  0.06338744 },
        },
        {   // Channel 10
            { -0.10773806, -0.04619739,  0.26436839 },
            {  0.09785640, -0.42766336, -0.01006664 },
            { -0.01374182, -0.02045088,  0.14629574 },
        },
        {   // Channel 11
            {  0.00483302,  0.12432964, -0.18503280 },
            {  0.07350817, -0.10526811,  0.03644472 },
            { -0.34317842,  0.20180559, -0.28737965 },
        },
    },
    // Filter 9
    {
        {   // Channel 0
            {  0.01847250, -0.05818547, -0.07935263 },
            {  0.14005560, -0.14020038, -0.29274398 },
            {  0.09285364,  0.06241707, -0.04559072 },
        },
        {   // Channel 1
            { -0.19577889, -0.08563565, -0.07638294 },
            { -0.04378314, -0.03269660, -0.05998615 },
            {  0.14289971,  0.15148503, -0.09795283 },
        },
        {   // Channel 2
            { -0.10552209, -0.04543908, -0.07504793 },
            { -0.09419988,  0.02337612,  0.16935971 },
            { -0.17275275, -0.04834302, -0.01513679 },
        },
        {   // Channel 3
            { -0.03353487,  0.14873713, -0.02087555 },
            {  0.02089309, -0.04546570,  0.14857623 },
            { -0.04444316, -0.31089613,  0.00662820 },
        },
        {   // Channel 4
            {  0.15096772,  0.16045225,  0.06840587 },
            {  0.12466514,  0.17007445,  0.26550770 },
            {  0.08201279, -0.21798547,  0.18998745 },
        },
        {   // Channel 5
            {  0.07169417, -0.01039928, -0.05695143 },
            {  0.17461500,  0.04091981,  0.03027907 },
            {  0.00740902,  0.13608381, -0.06211979 },
        },
        {   // Channel 6
            {  0.03593942,  0.35386765,  0.00289219 },
            {  0.12815151,  0.15734756, -0.09993933 },
            {  0.30932346,  0.25314260, -0.03501496 },
        },
        {   // Channel 7
            {  0.10470392,  0.08632635, -0.08488585 },
            {  0.00500983,  0.02790439,  0.07269836 },
            {  0.11796364, -0.15053613,  0.05557484 },
        },
        {   // Channel 8
            { -0.11060601, -0.07853688,  0.07775678 },
            {  0.07899201,  0.31597751,  0.00000068 },
            {  0.12682302, -0.06187036, -0.15516745 },
        },
        {   // Channel 9
            {  0.24763286,  0.07114143,  0.46702960 },
            { -0.12500063,  0.16446118,  0.08826380 },
            {  0.26475164,  0.17826387, -0.02851821 },
        },
        {   // Channel 10
            {  0.10409480,  0.05875310,  0.02973252 },
            {  0.26643312,  0.35665295,  0.16763225 },
            { -0.08465710,  0.07359419,  0.05483371 },
        },
        {   // Channel 11
            {  0.01608540, -0.34520823,  0.07448080 },
            { -0.03931379, -0.34092355, -0.07551704 },
            {  0.02211491,  0.01304597,  0.02664873 },
        },
    },
    // Filter 10
    {
        {   // Channel 0
            { -0.01746575, -0.12065072,  0.24101293 },
            { -0.11884885,  0.15384756,  0.05498961 },
            { -0.13690966,  0.00330238, -0.13278836 },
        },
        {   // Channel 1
            {  0.18603350, -0.05477389,  0.07457270 },
            {  0.10312774, -0.02778914, -0.01322937 },
            { -0.08353240, -0.07194271, -0.05023118 },
        },
        {   // Channel 2
            { -0.07549330,  0.07094986, -0.00893840 },
            { -0.07552748,  0.03922410,  0.18404727 },
            { -0.07264782,  0.09468097,  0.10356224 },
        },
        {   // Channel 3
            {  0.19917522, -0.05668726,  0.08982711 },
            { -0.18153805, -0.09556933, -0.13283665 },
            {  0.14242119,  0.05898723,  0.16663666 },
        },
        {   // Channel 4
            {  0.12144744, -0.12907924, -0.02479080 },
            { -0.10801911,  0.35996938,  0.16905040 },
            { -0.12610450,  0.22027647, -0.06485320 },
        },
        {   // Channel 5
            { -0.20601402,  0.01940876, -0.06708656 },
            { -0.00593573, -0.28331280,  0.01301139 },
            { -0.06517537,  0.14788902,  0.01919983 },
        },
        {   // Channel 6
            {  0.08175642, -0.09730192, -0.19021665 },
            {  0.08454815,  0.03159143,  0.18801467 },
            {  0.21058761, -0.19876292,  0.15210155 },
        },
        {   // Channel 7
            {  0.08961041, -0.08491820, -0.02512946 },
            { -0.06164723, -0.06511313,  0.17344968 },
            {  0.24975339, -0.12688282,  0.22536586 },
        },
        {   // Channel 8
            { -0.16928965,  0.11955646, -0.19137341 },
            {  0.08084156,  0.15206516,  0.18875258 },
            { -0.23094517, -0.10071279,  0.04316046 },
        },
        {   // Channel 9
            {  0.07609005, -0.05579319, -0.05018102 },
            { -0.17845871, -0.13657995, -0.08425517 },
            { -0.09276760, -0.04170964, -0.12636754 },
        },
        {   // Channel 10
            {  0.09168249, -0.00120742, -0.09217133 },
            {  0.14389145, -0.11772896, -0.07865921 },
            {  0.05093889,  0.11709005,  0.13494834 },
        },
        {   // Channel 11
            {  0.09585696, -0.23919159,  0.06693918 },
            {  0.01945305, -0.34036225,  0.05772385 },
            {  0.16264346,  0.08266848,  0.00798409 },
        },
    },
    // Filter 11
    {
        {   // Channel 0
            {  0.01939078,  0.12849654,  0.16039827 },
            { -0.18393917, -0.00968334, -0.41147178 },
            {  0.22806846,  0.13727336,  0.06279545 },
        },
        {   // Channel 1
            {  0.09361187, -0.16439059, -0.21729344 },
            {  0.09641261, -0.15143196,  0.12675349 },
            { -0.07494891, -0.12215569,  0.14465399 },
        },
        {   // Channel 2
            { -0.01645707,  0.21086873, -0.07787268 },
            {  0.06610154,  0.23950846, -0.03459665 },
            { -0.03280197,  0.08030265, -0.12706389 },
        },
        {   // Channel 3
            {  0.21553023, -0.04952763, -0.10266475 },
            {  0.36426544,  0.09314001, -0.24962677 },
            { -0.04005645, -0.20193698,  0.12157378 },
        },
        {   // Channel 4
            { -0.10110018, -0.04740542, -0.00544804 },
            {  0.04142842, -0.14661582,  0.19342273 },
            {  0.03760630, -0.05433931,  0.03652951 },
        },
        {   // Channel 5
            { -0.09787481,  0.07368919,  0.14785570 },
            {  0.06604513,  0.20814787,  0.08532947 },
            { -0.01534601,  0.03415285,  0.30109259 },
        },
        {   // Channel 6
            {  0.24328579, -0.23719664,  0.05191337 },
            {  0.02680861,  0.22923195,  0.17617846 },
            {  0.21652763, -0.05150375, -0.21554956 },
        },
        {   // Channel 7
            {  0.19337153,  0.20789421,  0.04129711 },
            {  0.01944851,  0.07821202, -0.07567355 },
            {  0.04227729,  0.19374262,  0.05421647 },
        },
        {   // Channel 8
            {  0.02277144, -0.00334159, -0.04654435 },
            {  0.00380389, -0.04281183,  0.09129734 },
            {  0.12252768,  0.15126532,  0.06416475 },
        },
        {   // Channel 9
            { -0.07505666,  0.07686763, -0.02433947 },
            { -0.04613456,  0.07329562, -0.11292285 },
            {  0.07804158,  0.07296589,  0.05890757 },
        },
        {   // Channel 10
            { -0.10706788, -0.02130049, -0.06885910 },
            {  0.06787268,  0.32252020, -0.04750467 },
            { -0.19544417,  0.03717453,  0.07628386 },
        },
        {   // Channel 11
            {  0.00921998, -0.13479945, -0.10755581 },
            { -0.02552965, -0.04058673, -0.02177499 },
            {  0.14902398, -0.17725949, -0.09741672 },
        },
    },
};

const fixed_4_8_t conv_map0_bias[12] = {
     0.02193781, 
    -0.02611728, 
    -0.02844715, 
     0.01595077, 
    -0.01064067, 
     0.01040733, 
     0.00980309, 
     0.06390446, 
     0.01070761, 
     0.00999821, 
    -0.02339049, 
     0.05615458
};

const fixed_4_8_t conv_map0_prelu[12] = {
     0.72825509, 
     0.35299942, 
     1.00134313, 
     0.40339595, 
     0.28954992, 
     0.42153865, 
     1.29882145, 
     0.99962991, 
     0.26965794, 
     0.99841553, 
     1.01436007, 
     0.99882805
};

const fixed_4_8_t weights_layer_map2[12][12][3][3] = {
    // Filter 0
    {
        {   // Channel 0
            {  0.25075009,  0.04288599,  0.01874437 },
            {  0.09916619, -0.13325271, -0.01082241 },
            {  0.04995568, -0.03876597,  0.12260737 },
        },
        {   // Channel 1
            {  0.19506811,  0.06968035,  0.11225798 },
            {  0.12606266, -0.05959978, -0.27793795 },
            {  0.27233917, -0.06354111,  0.08060105 },
        },
        {   // Channel 2
            { -0.09065160,  0.02125157,  0.09230676 },
            { -0.03117188, -0.06707550,  0.08668083 },
            { -0.05312752,  0.17961755, -0.14725156 },
        },
        {   // Channel 3
            {  0.07348388, -0.05395962, -0.06958996 },
            {  0.08357063, -0.57422209, -0.11589227 },
            { -0.12600547, -0.05106944,  0.15827005 },
        },
        {   // Channel 4
            {  0.24652781, -0.08977362, -0.08077742 },
            { -0.09206593,  0.16812506, -0.13653101 },
            { -0.01307894,  0.38693652, -0.21108545 },
        },
        {   // Channel 5
            {  0.08772457, -0.15777807, -0.23283970 },
            {  0.00464943, -0.01437258,  0.20118533 },
            {  0.00776790,  0.24763325,  0.23795281 },
        },
        {   // Channel 6
            {  0.10930619,  0.17462511, -0.15010400 },
            { -0.20040552,  0.18656960,  0.21382560 },
            {  0.08256087,  0.23934710, -0.04918114 },
        },
        {   // Channel 7
            { -0.10264635,  0.19892804, -0.27665943 },
            { -0.25094450, -0.10332685, -0.13043770 },
            { -0.28153265,  0.12527719,  0.13759273 },
        },
        {   // Channel 8
            { -0.17816484,  0.13549550,  0.03675854 },
            {  0.00282989, -0.00081725,  0.00575809 },
            {  0.02326448,  0.01882628,  0.08438794 },
        },
        {   // Channel 9
            { -0.14556731, -0.13843411,  0.02625366 },
            {  0.07255185,  0.12944515,  0.06462844 },
            {  0.09851331, -0.12140223,  0.04052429 },
        },
        {   // Channel 10
            {  0.09482469, -0.02232919, -0.05934963 },
            { -0.11717615, -0.20319065,  0.06447177 },
            { -0.27177817, -0.14808908,  0.06148552 },
        },
        {   // Channel 11
            { -0.16734086, -0.13718331, -0.08264259 },
            { -0.08229920,  0.06640348, -0.23135665 },
            { -0.07328155, -0.07834888, -0.08440249 },
        },
    },
    // Filter 1
    {
        {   // Channel 0
            {  0.26774538, -0.32302511, -0.20416224 },
            {  0.36558545,  0.02971337,  0.02089509 },
            { -0.13241823,  0.14317250, -0.14810885 },
        },
        {   // Channel 1
            {  0.18218952,  0.22957584, -0.06392465 },
            {  0.01494677,  0.49830127, -0.10039496 },
            { -0.05259007,  0.07614409,  0.05066760 },
        },
        {   // Channel 2
            {  0.00176959,  0.00496657,  0.02898613 },
            {  0.03421195,  0.20160584, -0.11163571 },
            { -0.10799876,  0.08633317, -0.25406021 },
        },
        {   // Channel 3
            {  0.28782055,  0.35386908, -0.05714104 },
            {  0.26044482,  0.16040175, -0.01546247 },
            {  0.13853709,  0.05165023, -0.14230332 },
        },
        {   // Channel 4
            {  0.28784350,  0.14939731,  0.02832681 },
            {  0.11459888, -0.14492282, -0.13452338 },
            {  0.15720116, -0.17318341, -0.01599775 },
        },
        {   // Channel 5
            {  0.00038180,  0.16085196, -0.07363864 },
            {  0.33951175, -0.05416710,  0.12076868 },
            {  0.16158304, -0.02687537,  0.03644161 },
        },
        {   // Channel 6
            { -0.01294244,  0.22614528,  0.11813291 },
            {  0.15813406,  0.25186488,  0.11055800 },
            { -0.04529865,  0.01725635,  0.14076479 },
        },
        {   // Channel 7
            {  0.13064842,  0.03438187,  0.04043357 },
            {  0.04265672,  0.34081930, -0.05411864 },
            { -0.09810291, -0.24199198, -0.16718033 },
        },
        {   // Channel 8
            {  0.15479650,  0.21799229,  0.15677235 },
            { -0.09315450,  0.28573704,  0.06785631 },
            { -0.16300645,  0.11220475,  0.09791970 },
        },
        {   // Channel 9
            { -0.21816395, -0.25741822, -0.00974373 },
            {  0.22312856, -0.00540914,  0.01624799 },
            { -0.00237613, -0.04359828,  0.22046438 },
        },
        {   // Channel 10
            { -0.17101553,  0.18064785,  0.22506444 },
            {  0.05444756, -0.19807161, -0.09687161 },
            { -0.01888697,  0.06794371, -0.06957911 },
        },
        {   // Channel 11
            {  0.18884796,  0.16988608, -0.04402332 },
            { -0.15484740, -0.14915907,  0.00526676 },
            {  0.07454078,  0.15268649, -0.06676564 },
        },
    },
    // Filter 2
    {
        {   // Channel 0
            { -0.08019347, -0.18431531, -0.18747391 },
            {  0.10842989,  0.34375471,  0.04783018 },
            { -0.17190684, -0.37051350,  0.05430260 },
        },
        {   // Channel 1
            {  0.23391889,  0.06934486, -0.05239512 },
            { -0.03872572, -0.18739288, -0.05593077 },
            {  0.23401023, -0.06531714, -0.14615056 },
        },
        {   // Channel 2
            {  0.05875076, -0.04920443, -0.14470783 },
            { -0.02494340, -0.09199174, -0.12934464 },
            { -0.19904239,  0.00664955,  0.01417240 },
        },
        {   // Channel 3
            { -0.13916819,  0.03307575, -0.04914510 },
            {  0.10889601,  0.16409636, -0.07683156 },
            {  0.09077293, -0.01743154,  0.20364395 },
        },
        {   // Channel 4
            {  0.41274026, -0.01597957, -0.01253083 },
            { -0.07393363,  0.17951509,  0.19612969 },
            {  0.06900840, -0.14636160,  0.09220802 },
        },
        {   // Channel 5
            { -0.10902098,  0.21453513, -0.10004672 },
            { -0.25692236, -0.04224932,  0.17217986 },
            { -0.03277783,  0.24816766, -0.40665665 },
        },
        {   // Channel 6
            { -0.05354913,  0.01382705, -0.05609439 },
            {  0.06923176,  0.25092706, -0.04119789 },
            { -0.04071600,  0.10916290, -0.13671558 },
        },
        {   // Channel 7
            {  0.05194171,  0.00778570,  0.11829069 },
            { -0.11970115, -0.04080597,  0.02923610 },
            {  0.24155766,  0.10257948, -0.01330974 },
        },
        {   // Channel 8
            { -0.08220273,  0.10055760, -0.08109598 },
            { -0.06173193, -0.41071811, -0.16340557 },
            {  0.29053974,  0.02359498,  0.32224050 },
        },
        {   // Channel 9
            {  0.11534738,  0.03957283,  0.28136298 },
            {  0.03563302,  0.35867450, -0.11082504 },
            { -0.07960171,  0.18741786,  0.01757376 },
        },
        {   // Channel 10
            {  0.02622074,  0.06732918, -0.06422849 },
            { -0.32066181,  0.01349306, -0.00523064 },
            {  0.12154068,  0.15312263, -0.05290765 },
        },
        {   // Channel 11
            {  0.01710031,  0.07966039, -0.03764541 },
            { -0.02151348,  0.17968009,  0.29871580 },
            {  0.11621650,  0.05463369, -0.02289617 },
        },
    },
    // Filter 3
    {
        {   // Channel 0
            { -0.01092428,  0.13394324,  0.13875441 },
            {  0.08394831, -0.11619645, -0.30874282 },
            { -0.22120154,  0.14991884,  0.14356862 },
        },
        {   // Channel 1
            {  0.11543781,  0.05415398, -0.09070483 },
            { -0.03474244,  0.31952903,  0.07013755 },
            { -0.49373227, -0.27499297, -0.00220143 },
        },
        {   // Channel 2
            {  0.08739115, -0.19269684, -0.05334108 },
            {  0.19440526, -0.00292887, -0.02673270 },
            {  0.19764158,  0.03385071,  0.18700413 },
        },
        {   // Channel 3
            {  0.02427337,  0.10549477,  0.16210070 },
            { -0.06868949,  0.05619298,  0.15589407 },
            { -0.03237342, -0.01905624, -0.03021690 },
        },
        {   // Channel 4
            {  0.23767091,  0.15164603, -0.32962668 },
            { -0.02984888,  0.11396396, -0.23035441 },
            {  0.13257365, -0.00054951, -0.25839537 },
        },
        {   // Channel 5
            { -0.21877266, -0.03598468,  0.03967432 },
            {  0.15580682, -0.00201255,  0.15568395 },
            { -0.03643559,  0.18288982, -0.05343252 },
        },
        {   // Channel 6
            { -0.04422672,  0.26571119,  0.02326976 },
            {  0.02576377,  0.02749095,  0.13788745 },
            { -0.03853618,  0.00685472, -0.20933926 },
        },
        {   // Channel 7
            {  0.06530806,  0.08980032, -0.13059951 },
            {  0.04693108,  0.33567175,  0.08715085 },
            { -0.03153487,  0.21934535,  0.13355058 },
        },
        {   // Channel 8
            { -0.11646007, -0.03465078, -0.02365091 },
            {  0.25865203, -0.00191973,  0.10474102 },
            { -0.19858560,  0.19577944, -0.10678361 },
        },
        {   // Channel 9
            { -0.19134282, -0.34937668, -0.13951224 },
            {  0.11301981,  0.04820117, -0.21186364 },
            { -0.06801621,  0.08949547, -0.02821459 },
        },
        {   // Channel 10
            {  0.21688046, -0.25382802,  0.10220589 },
            { -0.09383497, -0.04155206,  0.00581166 },
            { -0.03016027,  0.17501539, -0.13876793 },
        },
        {   // Channel 11
            { -0.00131959,  0.58102989,  0.07220421 },
            { -0.22857703,  0.33980033, -0.31182334 },
            { -0.10663345,  0.24157238,  0.08391094 },
        },
    },
    // Filter 4
    {
        {   // Channel 0
            {  0.13606228, -0.21980025, -0.08410951 },
            {  0.09121528,  0.01899570, -0.17750402 },
            {  0.12141635,  0.10647324, -0.04514033 },
        },
        {   // Channel 1
            {  0.05133563, -0.03096465, -0.01683793 },
            {  0.18728016, -0.22762528, -0.11823542 },
            { -0.20815000, -0.15066619,  0.06878297 },
        },
        {   // Channel 2
            {  0.10826615, -0.06562413, -0.10780352 },
            { -0.01396096, -0.03812147,  0.05062529 },
            {  0.04755193, -0.19023660, -0.19546941 },
        },
        {   // Channel 3
            {  0.08118216, -0.37838387, -0.12629256 },
            { -0.07446174, -0.06521989, -0.10250913 },
            { -0.01685340,  0.27857023,  0.09063453 },
        },
        {   // Channel 4
            {  0.26261547,  0.04983724,  0.05032096 },
            {  0.21711263,  0.07710619, -0.21711770 },
            {  0.23911336,  0.12432322,  0.13107386 },
        },
        {   // Channel 5
            { -0.22484715, -0.09643796, -0.12695523 },
            { -0.19127798,  0.13058223,  0.08154289 },
            {  0.02911219,  0.12518591,  0.00028371 },
        },
        {   // Channel 6
            { -0.10236599, -0.08154508,  0.02492882 },
            { -0.00638616, -0.14505538,  0.13121927 },
            {  0.15895925,  0.11638451, -0.01407570 },
        },
        {   // Channel 7
            {  0.07698798, -0.02016219,  0.02357103 },
            { -0.03483316,  0.04121171, -0.00758276 },
            {  0.02514485,  0.06975026,  0.02411080 },
        },
        {   // Channel 8
            {  0.05816172, -0.15052398, -0.05604392 },
            { -0.22560562, -0.26863039, -0.23164418 },
            {  0.12338132, -0.02615049, -0.13536267 },
        },
        {   // Channel 9
            {  0.09759967, -0.05550347,  0.04717601 },
            {  0.01697693,  0.28622162,  0.12756298 },
            { -0.09208771,  0.13599400, -0.04586660 },
        },
        {   // Channel 10
            {  0.18069811,  0.02278665,  0.04196794 },
            {  0.01345364, -0.12452188,  0.07056133 },
            { -0.21353813, -0.01202178,  0.09202616 },
        },
        {   // Channel 11
            { -0.06663183, -0.01602673,  0.04109149 },
            { -0.05845832,  0.22768447, -0.07086077 },
            { -0.15688495, -0.08633656, -0.16269186 },
        },
    },
    // Filter 5
    {
        {   // Channel 0
            {  0.22239600, -0.03883871,  0.18217672 },
            { -0.00090701, -0.03983607,  0.26559800 },
            {  0.20684747, -0.12985912, -0.04113003 },
        },
        {   // Channel 1
            {  0.30082655,  0.06482567, -0.05724855 },
            {  0.41889292,  0.39737883, -0.09988847 },
            { -0.11141992,  0.07097208, -0.02442377 },
        },
        {   // Channel 2
            { -0.10013569, -0.01133953, -0.11954599 },
            {  0.10708334,  0.28937992,  0.11706401 },
            { -0.03693444, -0.25018701, -0.13514109 },
        },
        {   // Channel 3
            { -0.06055557, -0.13292623,  0.10638136 },
            { -0.03592785,  0.23700900,  0.07386269 },
            {  0.05854913, -0.04744509,  0.19575250 },
        },
        {   // Channel 4
            { -0.12199828, -0.01136334, -0.43536058 },
            { -0.12655613, -0.14005846, -0.19143257 },
            {  0.04136454, -0.03698021, -0.20811385 },
        },
        {   // Channel 5
            {  0.27836758,  0.07157919,  0.11339806 },
            { -0.03212128,  0.03278382, -0.03510193 },
            {  0.19673118,  0.12716642,  0.29249805 },
        },
        {   // Channel 6
            {  0.10212559,  0.10094410, -0.19057131 },
            { -0.07243490,  0.09990384,  0.01403505 },
            {  0.03647537,  0.09446101, -0.09382305 },
        },
        {   // Channel 7
            {  0.08440443, -0.09060214, -0.07896022 },
            { -0.00481685,  0.00250980,  0.15522680 },
            { -0.05636769,  0.14903747, -0.22611879 },
        },
        {   // Channel 8
            { -0.08505190,  0.22886354, -0.14866540 },
            { -0.33633041,  0.44943002, -0.10658391 },
            {  0.08438468, -0.18165214, -0.10074877 },
        },
        {   // Channel 9
            { -0.17468393,  0.06619255,  0.01260127 },
            { -0.12297243,  0.33929390,  0.21810314 },
            { -0.05989435,  0.19470970, -0.10313732 },
        },
        {   // Channel 10
            { -0.18367365,  0.04530738, -0.11243755 },
            { -0.23354799,  0.00018035,  0.14145100 },
            {  0.05863512,  0.09819868,  0.04918006 },
        },
        {   // Channel 11
            {  0.11019029, -0.27641737, -0.08575056 },
            {  0.07589807, -0.20583542,  0.11236668 },
            {  0.11999784, -0.21917856,  0.07496896 },
        },
    },
    // Filter 6
    {
        {   // Channel 0
            { -0.09085952, -0.31702682,  0.11026889 },
            {  0.21099502, -0.11977889,  0.00065634 },
            { -0.05572652,  0.01354869, -0.13829723 },
        },
        {   // Channel 1
            {  0.06914377, -0.17767514, -0.07415364 },
            { -0.19684607,  0.36619562, -0.20626259 },
            { -0.25195649,  0.01397755,  0.01347339 },
        },
        {   // Channel 2
            { -0.06770596,  0.08722506, -0.20680779 },
            { -0.18758130,  0.28510088, -0.02875978 },
            {  0.11356042,  0.06303089,  0.05774645 },
        },
        {   // Channel 3
            { -0.06302973, -0.24269414,  0.38753560 },
            { -0.03372468, -0.00638388, -0.15216857 },
            {  0.06237229, -0.06083328,  0.11503991 },
        },
        {   // Channel 4
            {  0.04540471, -0.09535217, -0.17819725 },
            { -0.29568520,  0.01223734,  0.01978840 },
            { -0.12825906, -0.11698215, -0.02370449 },
        },
        {   // Channel 5
            {  0.03719227, -0.26771837, -0.03761236 },
            { -0.12419995, -0.04040282,  0.27802718 },
            { -0.07463976,  0.16778311,  0.05166271 },
        },
        {   // Channel 6
            { -0.15918818,  0.06390952, -0.26362437 },
            {  0.06465128,  0.55927646,  0.15079431 },
            { -0.20380613, -0.10165700, -0.07940909 },
        },
        {   // Channel 7
            { -0.09590799, -0.29040748,  0.16558193 },
            { -0.05249970,  0.10515514,  0.22076434 },
            {  0.13385020, -0.13501637,  0.10494619 },
        },
        {   // Channel 8
            { -0.02945487,  0.20896719, -0.12761341 },
            {  0.10085715,  0.18987723, -0.08209143 },
            {  0.09776014, -0.12664077,  0.10899228 },
        },
        {   // Channel 9
            {  0.05334055,  0.00996081,  0.07503891 },
            { -0.22983240, -0.26267627, -0.23906499 },
            {  0.04248516,  0.00280165, -0.02293932 },
        },
        {   // Channel 10
            {  0.13071521,  0.16255319, -0.06706724 },
            {  0.07411992,  0.00012992,  0.13422994 },
            {  0.09475564,  0.04808253,  0.01513362 },
        },
        {   // Channel 11
            {  0.07439785,  0.04999276, -0.00058605 },
            {  0.07862735,  0.07897457,  0.22220749 },
            { -0.03530543,  0.04518278,  0.20100425 },
        },
    },
    // Filter 7
    {
        {   // Channel 0
            { -0.18136220, -0.14316589,  0.12391131 },
            { -0.05673197, -0.11850118, -0.22109818 },
            {  0.00704006, -0.19684562,  0.08784494 },
        },
        {   // Channel 1
            { -0.01584216,  0.15412438,  0.03085127 },
            {  0.27865547, -0.29310140, -0.02991368 },
            {  0.21517855, -0.15219961,  0.14388227 },
        },
        {   // Channel 2
            {  0.02547634, -0.06096090,  0.11732047 },
            {  0.08515800,  0.07952265,  0.02288789 },
            { -0.11566487,  0.15203364,  0.10152470 },
        },
        {   // Channel 3
            { -0.09397353, -0.27950159,  0.09622596 },
            { -0.31637335,  0.19828565, -0.02228712 },
            {  0.02535375,  0.18292622, -0.00850302 },
        },
        {   // Channel 4
            { -0.04621919, -0.13526748,  0.20272639 },
            { -0.08473790, -0.01125061,  0.13039285 },
            { -0.17026086, -0.13396430,  0.11932235 },
        },
        {   // Channel 5
            {  0.14266352, -0.20654145, -0.03131252 },
            {  0.12661619,  0.37420478, -0.05002637 },
            {  0.08456251, -0.05884782, -0.06853912 },
        },
        {   // Channel 6
            {  0.04510348,  0.09184193,  0.13575898 },
            {  0.13760777, -0.26676604, -0.14136824 },
            {  0.00627953, -0.12514684, -0.11256165 },
        },
        {   // Channel 7
            {  0.09646798, -0.25359839, -0.10289571 },
            {  0.19180873, -0.03059541, -0.07785789 },
            { -0.09880519, -0.12273303, -0.07547464 },
        },
        {   // Channel 8
            {  0.06445885,  0.03637038,  0.09526232 },
            { -0.06038642, -0.06778666,  0.11534420 },
            {  0.13506737, -0.09627015, -0.15793626 },
        },
        {   // Channel 9
            { -0.12575829,  0.20811559, -0.04462016 },
            { -0.18691647,  0.60886461, -0.10318469 },
            {  0.08475925, -0.19690010, -0.00862999 },
        },
        {   // Channel 10
            {  0.19873630,  0.07192223,  0.10435740 },
            {  0.09643794, -0.09006243, -0.00770076 },
            {  0.05596428,  0.16136944, -0.08228819 },
        },
        {   // Channel 11
            {  0.08704923,  0.13975424, -0.17213832 },
            {  0.07238821,  0.59277332, -0.15055749 },
            {  0.07561434, -0.16568723, -0.29344174 },
        },
    },
    // Filter 8
    {
        {   // Channel 0
            { -0.23052728,  0.00156351, -0.10139996 },
            {  0.07019430, -0.02987867, -0.08452303 },
            { -0.00371635,  0.24068190,  0.16504104 },
        },
        {   // Channel 1
            {  0.02820568,  0.22400637,  0.13063517 },
            {  0.22629115,  0.19476445,  0.02188959 },
            {  0.04515882, -0.14515220, -0.07766944 },
        },
        {   // Channel 2
            {  0.09846412, -0.25939104,  0.00762706 },
            {  0.04147023,  0.20188208,  0.04952971 },
            { -0.02389601,  0.09827989,  0.13488451 },
        },
        {   // Channel 3
            { -0.03185969, -0.03230947,  0.00959080 },
            { -0.45559195,  0.06894213,  0.08499773 },
            { -0.10214828, -0.17446327, -0.06274940 },
        },
        {   // Channel 4
            { -0.23881808, -0.21759012, -0.09666304 },
            {  0.09987002, -0.22612078, -0.12400706 },
            { -0.04825323, -0.22028905, -0.18509531 },
        },
        {   // Channel 5
            { -0.20767668, -0.38033587,  0.22731671 },
            { -0.08110108, -0.12200641, -0.19523469 },
            {  0.06090559, -0.12427508,  0.02799268 },
        },
        {   // Channel 6
            {  0.00949762,  0.07789953,  0.22673817 },
            {  0.07820336,  0.35814941,  0.08253007 },
            { -0.03708996, -0.07165305, -0.15577687 },
        },
        {   // Channel 7
            { -0.15140529,  0.00900855,  0.13942599 },
            {  0.09608223,  0.12132144,  0.02847485 },
            {  0.05666615,  0.04538613, -0.01957867 },
        },
        {   // Channel 8
            { -0.02827360,  0.00416800, -0.12324825 },
            { -0.07103098,  0.27709961,  0.04585484 },
            {  0.09717355,  0.10402624, -0.20430373 },
        },
        {   // Channel 9
            { -0.05169905, -0.03292610, -0.13454093 },
            {  0.01363658,  0.20631817, -0.04605578 },
            {  0.04578765, -0.18255001,  0.06486446 },
        },
        {   // Channel 10
            {  0.10847103,  0.18525894, -0.27716279 },
            { -0.06948118, -0.01654678, -0.06438183 },
            {  0.29226857,  0.21734548, -0.29361850 },
        },
        {   // Channel 11
            { -0.08051560, -0.31063560, -0.05453110 },
            {  0.06553899,  0.00976263, -0.06950808 },
            {  0.05556107, -0.04674702,  0.00934333 },
        },
    },
    // Filter 9
    {
        {   // Channel 0
            {  0.13157909, -0.22211574, -0.04777196 },
            { -0.01207013, -0.25845474, -0.00212811 },
            { -0.04709741, -0.27395269, -0.14263657 },
        },
        {   // Channel 1
            { -0.05472112,  0.08492114,  0.08993712 },
            { -0.10451655, -0.38194460, -0.12115952 },
            { -0.11895571, -0.28881347,  0.10195955 },
        },
        {   // Channel 2
            { -0.03450513, -0.00997528, -0.16522923 },
            { -0.15254559,  0.30690053,  0.20730360 },
            {  0.09284849,  0.12493140,  0.18894322 },
        },
        {   // Channel 3
            {  0.12032332,  0.20600019,  0.15221959 },
            { -0.25033721,  0.27440983,  0.19305888 },
            { -0.08962511,  0.22137851,  0.07465076 },
        },
        {   // Channel 4
            {  0.17778924,  0.10736434, -0.01259247 },
            {  0.02371471, -0.18313198,  0.04328451 },
            {  0.06140731, -0.01033788,  0.26653314 },
        },
        {   // Channel 5
            {  0.09139514, -0.07817886, -0.01545996 },
            { -0.04388331,  0.15354525, -0.05976872 },
            {  0.12705621,  0.02022285, -0.00812390 },
        },
        {   // Channel 6
            { -0.11084022, -0.00834458,  0.05036921 },
            {  0.02419150,  0.14415658,  0.09256785 },
            { -0.03989251, -0.17167683, -0.14920409 },
        },
        {   // Channel 7
            { -0.21524192, -0.00198265,  0.04560216 },
            { -0.18755068,  0.21469884,  0.10305713 },
            { -0.07529175,  0.20392638, -0.00435674 },
        },
        {   // Channel 8
            {  0.11719936, -0.00055265,  0.07347029 },
            {  0.06936370,  0.23052925,  0.12712495 },
            {  0.10497706, -0.10762349,  0.10813686 },
        },
        {   // Channel 9
            {  0.00692448,  0.00580421,  0.15174247 },
            {  0.10548151,  0.07749084,  0.03399924 },
            { -0.15398410,  0.14647903,  0.12171481 },
        },
        {   // Channel 10
            {  0.07120591,  0.11409123,  0.07792520 },
            {  0.23584661,  0.32356012, -0.18110570 },
            {  0.09914002, -0.21861023, -0.17373474 },
        },
        {   // Channel 11
            {  0.03906392, -0.15066943, -0.16153972 },
            { -0.23372735,  0.08413030, -0.08070699 },
            {  0.17599699,  0.08447674, -0.10077810 },
        },
    },
    // Filter 10
    {
        {   // Channel 0
            { -0.16930062,  0.24821621,  0.02455453 },
            { -0.07216217,  0.11740862, -0.11542447 },
            { -0.00194209,  0.04601008,  0.00174009 },
        },
        {   // Channel 1
            {  0.02751541, -0.25041008, -0.12310015 },
            {  0.44523016,  0.10146773, -0.15712811 },
            {  0.07889996, -0.23630650, -0.11233552 },
        },
        {   // Channel 2
            { -0.01736625, -0.17182641, -0.06354946 },
            {  0.01209655, -0.12618881, -0.04715061 },
            {  0.00938532, -0.27138928, -0.01171012 },
        },
        {   // Channel 3
            {  0.27495486,  0.10259923, -0.42483783 },
            {  0.29149973,  0.12904930, -0.24916944 },
            {  0.05636407,  0.14508288,  0.22713149 },
        },
        {   // Channel 4
            {  0.08748285, -0.29502627, -0.06483155 },
            { -0.14411093,  0.07166817,  0.20454942 },
            {  0.08070322,  0.05189838,  0.19741522 },
        },
        {   // Channel 5
            { -0.07181185,  0.07995593,  0.04707654 },
            { -0.00018445,  0.18865214,  0.43782011 },
            { -0.19537470, -0.02975984,  0.18287289 },
        },
        {   // Channel 6
            {  0.04576001, -0.05034254,  0.15800427 },
            {  0.05034589,  0.06251547, -0.14099535 },
            {  0.00589474, -0.09773329, -0.07752786 },
        },
        {   // Channel 7
            {  0.13364886,  0.01291818,  0.04964548 },
            {  0.15273832, -0.49487793, -0.11821698 },
            { -0.01650451, -0.10507609, -0.19534561 },
        },
        {   // Channel 8
            {  0.25622389, -0.36579242,  0.10365713 },
            { -0.21407217, -0.09329458, -0.54155904 },
            { -0.01827569,  0.14926149, -0.16668972 },
        },
        {   // Channel 9
            {  0.00149035,  0.17799732,  0.10460603 },
            { -0.15160182, -0.13219331, -0.21365505 },
            {  0.01050314, -0.07547500,  0.04169741 },
        },
        {   // Channel 10
            {  0.02972215, -0.31515884, -0.32029146 },
            { -0.01017847, -0.40273160,  0.27548456 },
            {  0.15541266,  0.07739320, -0.04430465 },
        },
        {   // Channel 11
            {  0.19687253, -0.11449497,  0.07843562 },
            { -0.10666422, -0.14366280, -0.03574445 },
            {  0.07217295, -0.08390215,  0.16224517 },
        },
    },
    // Filter 11
    {
        {   // Channel 0
            {  0.00219690,  0.10732643,  0.13897042 },
            {  0.18676408, -0.19298223, -0.10962737 },
            { -0.02088476,  0.17148250, -0.23739344 },
        },
        {   // Channel 1
            { -0.21877897, -0.30494472, -0.10882052 },
            { -0.03122937,  0.11317585,  0.08310848 },
            {  0.27736840,  0.02330898, -0.01071227 },
        },
        {   // Channel 2
            { -0.14393596,  0.04345161, -0.15396215 },
            { -0.21110101,  0.00974940,  0.04857413 },
            { -0.07087773,  0.02137491, -0.10395510 },
        },
        {   // Channel 3
            { -0.11577802,  0.04175590,  0.11520541 },
            { -0.25713837,  0.12785706, -0.07540961 },
            { -0.11076082, -0.18529442, -0.13851918 },
        },
        {   // Channel 4
            {  0.04063706,  0.32052431, -0.09005493 },
            {  0.02819183,  0.16775736, -0.03488101 },
            {  0.15304333, -0.01890405,  0.05131674 },
        },
        {   // Channel 5
            {  0.01556763,  0.12623727,  0.34385550 },
            {  0.01174369, -0.36606678, -0.07721141 },
            { -0.16474232, -0.21719913, -0.07413180 },
        },
        {   // Channel 6
            {  0.05504262, -0.00900478, -0.23564444 },
            {  0.12660816, -0.14852369, -0.08176694 },
            {  0.08194372,  0.36754733,  0.07506736 },
        },
        {   // Channel 7
            {  0.05872128,  0.13501813,  0.10821824 },
            {  0.01962093,  0.03116704,  0.02771529 },
            {  0.07977781,  0.17691387, -0.09182026 },
        },
        {   // Channel 8
            {  0.20738904, -0.06249905, -0.19585617 },
            { -0.07959895,  0.07477976, -0.20846701 },
            { -0.16243346, -0.06216701, -0.24454722 },
        },
        {   // Channel 9
            {  0.01813996, -0.02599843,  0.19102590 },
            {  0.06465925,  0.60986060, -0.05707141 },
            { -0.00346026,  0.05954547, -0.12396824 },
        },
        {   // Channel 10
            {  0.02056310, -0.29205462, -0.02760689 },
            {  0.16342179,  0.02603365, -0.09289436 },
            {  0.14600882, -0.05983300,  0.04634813 },
        },
        {   // Channel 11
            {  0.00160180, -0.00062116,  0.09169681 },
            {  0.01231079,  0.08621805, -0.09529966 },
            {  0.09231580, -0.05582072, -0.02337863 },
        },
    },
};

const fixed_4_8_t conv_map2_bias[12] = {
    -0.05670821, 
     0.07516169, 
     0.07519547, 
    -0.04018181, 
     0.03932417, 
    -0.05819120, 
    -0.07947931, 
    -0.00199914, 
    -0.02053689, 
     0.02558232, 
     0.06901376, 
    -0.00367012
};

const fixed_4_8_t conv_map2_prelu[12] = {
     0.31161508, 
     0.57852679, 
     0.99850053, 
     1.01061153, 
     1.00919783, 
     0.68988323, 
     1.27742922, 
     1.13030005, 
     0.95225722, 
     1.00037706, 
     0.30477598, 
     1.00184977
};

const fixed_4_8_t weights_layer_map4[8][12][3][3] = {
    // Filter 0
    {
        {   // Channel 0
            {  0.19884299,  0.05552585, -0.02003850 },
            { -0.18733394, -0.14771287, -0.04076831 },
            { -0.04825091,  0.09381723,  0.17526801 },
        },
        {   // Channel 1
            {  0.04575122, -0.29502344, -0.07401861 },
            { -0.18773763,  0.15294909, -0.14162286 },
            { -0.06604919,  0.06205493, -0.08641649 },
        },
        {   // Channel 2
            {  0.13453653, -0.03838211,  0.00963209 },
            {  0.10171077, -0.03427626, -0.07730760 },
            { -0.00146389, -0.01464106, -0.13955712 },
        },
        {   // Channel 3
            {  0.02407931,  0.05168008, -0.13370204 },
            {  0.30884284, -0.01309564, -0.26056579 },
            { -0.03509562, -0.29310939, -0.09686054 },
        },
        {   // Channel 4
            { -0.05105636,  0.02342261,  0.08886386 },
            { -0.13696830, -0.01058858,  0.12680303 },
            { -0.10953429,  0.01923821, -0.04360419 },
        },
        {   // Channel 5
            { -0.09350212,  0.00823214, -0.01156839 },
            {  0.09020821,  0.16927825,  0.25512782 },
            {  0.28980544,  0.06406089,  0.08222253 },
        },
        {   // Channel 6
            {  0.00893700,  0.07887731,  0.03454787 },
            { -0.36026201,  0.18564792,  0.15535158 },
            { -0.17739272,  0.17109084,  0.01161532 },
        },
        {   // Channel 7
            {  0.00023200, -0.01534994,  0.06569181 },
            { -0.09108666,  0.10130928,  0.45097446 },
            { -0.10013477, -0.21729746, -0.17734152 },
        },
        {   // Channel 8
            { -0.05283815,  0.07287125, -0.10912196 },
            { -0.08969751,  0.43162563,  0.22746797 },
            { -0.09169219,  0.05958373,  0.08239907 },
        },
        {   // Channel 9
            { -0.09099220,  0.14903872, -0.17493205 },
            {  0.21667895,  0.38141727,  0.05247604 },
            {  0.03051593,  0.04421343,  0.05227083 },
        },
        {   // Channel 10
            { -0.02354455,  0.09094907,  0.00505762 },
            { -0.05768023,  0.08641684, -0.02469392 },
            {  0.12777270, -0.18336456,  0.11512365 },
        },
        {   // Channel 11
            {  0.18063714, -0.14909764,  0.05753108 },
            {  0.08320654,  0.29889029,  0.18896548 },
            {  0.07185379, -0.15988511,  0.24754517 },
        },
    },
    // Filter 1
    {
        {   // Channel 0
            {  0.21858123, -0.09799265,  0.04463311 },
            {  0.00584842, -0.00630102,  0.14870311 },
            {  0.09692890,  0.08933103,  0.18235415 },
        },
        {   // Channel 1
            { -0.05657792, -0.16034895, -0.06012725 },
            { -0.00942984, -0.01367605, -0.11698010 },
            {  0.26532120, -0.01248420,  0.11617267 },
        },
        {   // Channel 2
            { -0.00350564,  0.48380023,  0.03583372 },
            { -0.26681897,  0.14687380,  0.17189734 },
            {  0.04970494,  0.14924105,  0.31614596 },
        },
        {   // Channel 3
            {  0.11325107, -0.11255599,  0.28066331 },
            {  0.32966393, -0.12992972, -0.05361851 },
            {  0.03347186, -0.03020706,  0.06806908 },
        },
        {   // Channel 4
            {  0.26207626, -0.24788739, -0.05304935 },
            {  0.27378368,  0.32591975,  0.26731840 },
            {  0.17146811,  0.07685252,  0.13758811 },
        },
        {   // Channel 5
            {  0.01588583, -0.20745197, -0.00917687 },
            { -0.45313734,  0.09348791,  0.27458397 },
            { -0.19637619,  0.07284695,  0.11619845 },
        },
        {   // Channel 6
            {  0.14782476,  0.05114071,  0.00165393 },
            {  0.00020231,  0.16399911, -0.28930011 },
            { -0.00652053,  0.46414894,  0.20645772 },
        },
        {   // Channel 7
            { -0.04092143, -0.24510740, -0.14015885 },
            {  0.22022410,  0.00953087, -0.25885355 },
            {  0.08104902,  0.15586501, -0.00590900 },
        },
        {   // Channel 8
            { -0.05061721, -0.21269454, -0.02130165 },
            { -0.08732382, -0.15566926,  0.04505194 },
            { -0.08700218,  0.41821283,  0.13956790 },
        },
        {   // Channel 9
            { -0.03663809,  0.21120657,  0.03535478 },
            {  0.00309950, -0.11252686, -0.07874841 },
            { -0.27657509,  0.05508864, -0.06073590 },
        },
        {   // Channel 10
            {  0.09603547,  0.03865634, -0.17091402 },
            { -0.02032149,  0.43395731,  0.09750702 },
            { -0.02149361,  0.06111920,  0.06019751 },
        },
        {   // Channel 11
            { -0.00764265,  0.16003306, -0.08726493 },
            {  0.27908024,  0.22456901, -0.04656382 },
            { -0.03770808, -0.09268709, -0.18943566 },
        },
    },
    // Filter 2
    {
        {   // Channel 0
            {  0.22922692,  0.29015547,  0.23559676 },
            {  0.27015862,  0.41565442,  0.00667444 },
            { -0.11868688,  0.06379172,  0.05636252 },
        },
        {   // Channel 1
            { -0.00236156,  0.02668557,  0.20324929 },
            { -0.17462820, -0.25681049, -0.05246719 },
            {  0.01074828, -0.05980124, -0.10564336 },
        },
        {   // Channel 2
            { -0.19821723, -0.07563408, -0.08290875 },
            {  0.01762792, -0.01347926, -0.14714764 },
            {  0.03819818,  0.15689662, -0.03915172 },
        },
        {   // Channel 3
            { -0.24373963, -0.07608057, -0.04539997 },
            {  0.10234962, -0.20247208, -0.09940409 },
            {  0.06675182, -0.11298696,  0.08318044 },
        },
        {   // Channel 4
            { -0.01517602, -0.07382192,  0.01566228 },
            { -0.33455431, -0.11219601, -0.04839128 },
            { -0.09456351, -0.07956097, -0.04975721 },
        },
        {   // Channel 5
            { -0.24346173,  0.02308704, -0.05037429 },
            {  0.04423578, -0.04098753,  0.02646124 },
            { -0.14290442,  0.28096986,  0.04362732 },
        },
        {   // Channel 6
            { -0.20369381, -0.09611973,  0.04883606 },
            { -0.29573578,  0.13526371,  0.01828817 },
            { -0.11609830,  0.07593530, -0.18608591 },
        },
        {   // Channel 7
            {  0.14343601,  0.02089774,  0.13449319 },
            {  0.17710564,  0.16222972, -0.13984853 },
            {  0.13666850,  0.22123016, -0.04226081 },
        },
        {   // Channel 8
            { -0.20860088,  0.07848884,  0.22591183 },
            {  0.00988716,  0.00694566,  0.15650359 },
            { -0.03010771, -0.00128562, -0.11214848 },
        },
        {   // Channel 9
            { -0.18513925, -0.46585071,  0.13070616 },
            {  0.02691208,  0.08331262,  0.02364467 },
            { -0.04260226,  0.10345773, -0.07260702 },
        },
        {   // Channel 10
            {  0.35237622, -0.12786494, -0.16652276 },
            { -0.23269485,  0.26131183, -0.65445393 },
            {  0.27176625, -0.10095074, -0.19670297 },
        },
        {   // Channel 11
            { -0.16245224,  0.13868436,  0.04318473 },
            { -0.05450257,  0.01400476,  0.39702994 },
            { -0.14921595, -0.03387807,  0.18837908 },
        },
    },
    // Filter 3
    {
        {   // Channel 0
            {  0.09226459,  0.04774834,  0.21987724 },
            {  0.37452632,  0.26600716,  0.33492768 },
            {  0.17814863,  0.16994914, -0.06266728 },
        },
        {   // Channel 1
            { -0.15003929,  0.22502008,  0.02467761 },
            { -0.10128409,  0.05349667, -0.19454019 },
            { -0.15406640,  0.32206482,  0.15908225 },
        },
        {   // Channel 2
            { -0.24790817, -0.22956930, -0.00444290 },
            { -0.15304901, -0.27230462, -0.21676020 },
            {  0.01333503,  0.31469509,  0.14250790 },
        },
        {   // Channel 3
            { -0.05687568, -0.04372265, -0.04896683 },
            { -0.19708756,  0.50885206, -0.12952916 },
            {  0.17554656,  0.13180427, -0.09890479 },
        },
        {   // Channel 4
            { -0.03271051, -0.15688094,  0.08500061 },
            { -0.25415814, -0.20916431, -0.11600482 },
            { -0.28397614,  0.11663447,  0.08805519 },
        },
        {   // Channel 5
            {  0.29679596, -0.08144202,  0.07261882 },
            {  0.11005321,  0.07508562, -0.03313580 },
            { -0.30577302,  0.26404059, -0.20988499 },
        },
        {   // Channel 6
            { -0.07653564,  0.04556663,  0.15517151 },
            { -0.11530493,  0.09200680,  0.08885840 },
            { -0.17230117,  0.27870977,  0.02858322 },
        },
        {   // Channel 7
            {  0.03334593,  0.02777911,  0.09801552 },
            {  0.03446295, -0.09021608,  0.05931176 },
            { -0.03114813,  0.42169890,  0.42175084 },
        },
        {   // Channel 8
            {  0.01152222,  0.15779589,  0.09452300 },
            {  0.06349911,  0.30665007,  0.00484746 },
            {  0.30343729, -0.16806032,  0.26700842 },
        },
        {   // Channel 9
            { -0.10512253, -0.08292964, -0.01304845 },
            {  0.14494660,  0.18638660,  0.18112077 },
            {  0.13650531,  0.10190254, -0.28326306 },
        },
        {   // Channel 10
            {  0.10509375, -0.37330061,  0.07127678 },
            { -0.21340866, -0.28778580,  0.16253327 },
            { -0.15478170, -0.14007802, -0.49628413 },
        },
        {   // Channel 11
            {  0.03441459,  0.04441480,  0.04201755 },
            { -0.03633193, -0.00935460, -0.16653423 },
            { -0.17427817, -0.14053319,  0.06170103 },
        },
    },
    // Filter 4
    {
        {   // Channel 0
            { -0.32384863, -0.30639961,  0.05453654 },
            { -0.15785028, -0.32631856,  0.00935852 },
            {  0.07690818, -0.26803595,  0.00588870 },
        },
        {   // Channel 1
            {  0.13257164,  0.02538383,  0.05337884 },
            {  0.10072594, -0.07438805,  0.17226115 },
            { -0.09694469, -0.28030083, -0.10723142 },
        },
        {   // Channel 2
            { -0.18396156,  0.24264666, -0.11274692 },
            { -0.21498162,  0.47062263,  0.00737378 },
            { -0.05932240, -0.08316417, -0.21269375 },
        },
        {   // Channel 3
            {  0.10515386, -0.06539499,  0.20274124 },
            { -0.00909968,  0.40532702,  0.30916029 },
            {  0.06065544,  0.08501929,  0.00233869 },
        },
        {   // Channel 4
            { -0.15022083,  0.06521922, -0.11656254 },
            {  0.04344717,  0.15616137, -0.11707460 },
            { -0.26138401,  0.12203145,  0.03603154 },
        },
        {   // Channel 5
            {  0.11150736, -0.32333747, -0.37786222 },
            { -0.03518661, -0.26707432, -0.18805005 },
            {  0.19091073, -0.11494332,  0.23423818 },
        },
        {   // Channel 6
            {  0.13953699,  0.09510123,  0.05185913 },
            {  0.07272179, -0.29682875,  0.10862285 },
            {  0.01681798,  0.05006720, -0.14259461 },
        },
        {   // Channel 7
            { -0.01081337, -0.07445159, -0.33346540 },
            { -0.15392184,  0.17986904,  0.01063570 },
            {  0.04573182, -0.35795507, -0.12003225 },
        },
        {   // Channel 8
            {  0.28521872, -0.20134057, -0.00134613 },
            {  0.20989257,  0.34033802, -0.28824183 },
            { -0.13377297, -0.21191801, -0.00158791 },
        },
        {   // Channel 9
            {  0.00862176,  0.49293548,  0.03450080 },
            { -0.15902433,  0.25689745, -0.04973714 },
            {  0.17389624,  0.10200411,  0.19711007 },
        },
        {   // Channel 10
            { -0.04772587,  0.23324658, -0.14977911 },
            { -0.38735053,  0.04730876, -0.29880652 },
            { -0.12693119,  0.28957045, -0.01790606 },
        },
        {   // Channel 11
            { -0.13085572, -0.20061205, -0.04041264 },
            { -0.04033031,  0.30346993, -0.05372572 },
            { -0.00007654, -0.03487536,  0.00608861 },
        },
    },
    // Filter 5
    {
        {   // Channel 0
            {  0.11084454,  0.20076455,  0.05412349 },
            { -0.04246408, -0.00184463, -0.24872455 },
            {  0.04012960, -0.20367119, -0.00220361 },
        },
        {   // Channel 1
            { -0.00528537, -0.26090202, -0.19660336 },
            {  0.04312253, -0.20603189,  0.03489836 },
            {  0.01828390, -0.19030428, -0.04120068 },
        },
        {   // Channel 2
            { -0.01559823, -0.05855251,  0.20381632 },
            {  0.10786828, -0.18482332, -0.06472599 },
            { -0.09899719, -0.11330663, -0.20331250 },
        },
        {   // Channel 3
            { -0.12938200, -0.02940803,  0.01851193 },
            {  0.24253941, -0.16586483,  0.09602097 },
            { -0.08093198, -0.14340645,  0.09710260 },
        },
        {   // Channel 4
            { -0.11809579,  0.07521217, -0.06468306 },
            {  0.01146916,  0.17083272,  0.18087132 },
            {  0.03091766,  0.01341371,  0.05763112 },
        },
        {   // Channel 5
            {  0.03018001, -0.02348495,  0.05166215 },
            {  0.03030920,  0.14773887, -0.05617145 },
            {  0.33211470, -0.15981400, -0.13113193 },
        },
        {   // Channel 6
            {  0.24447654, -0.27581209,  0.03046991 },
            {  0.08959901, -0.05179117, -0.02775972 },
            {  0.24627663, -0.15836242, -0.16459769 },
        },
        {   // Channel 7
            { -0.04031960, -0.00814170, -0.12189548 },
            {  0.19900864,  0.63960409,  0.00319263 },
            { -0.03951889, -0.23282124, -0.26586130 },
        },
        {   // Channel 8
            { -0.07481148, -0.32660392,  0.22315191 },
            { -0.19544895,  0.12991877, -0.09607324 },
            { -0.03418025, -0.38707790,  0.03846224 },
        },
        {   // Channel 9
            { -0.23562784, -0.11343161, -0.04058376 },
            {  0.13466650,  0.50812435,  0.10642081 },
            { -0.06930991,  0.11856244,  0.10297667 },
